digraph Tree {
node [shape=box, fontname="helvetica"] ;
edge [fontname="helvetica"] ;
0 [label="tenure <= 16.5\ngini = 0.39\nsamples = 5634\nvalue = [4138, 1496]"] ;
1 [label="MonthlyCharges <= 68.625\ngini = 0.496\nsamples = 2025\nvalue = [1106, 919]"] ;
0 -> 1 [labeldistance=2.5, labelangle=45, headlabel="True"] ;
2 [label="tenure <= 3.5\ngini = 0.415\nsamples = 1114\nvalue = [786, 328]"] ;
1 -> 2 ;
3 [label="MonthlyCharges <= 20.875\ngini = 0.492\nsamples = 484\nvalue = [272, 212]"] ;
2 -> 3 ;
4 [label="TotalCharges <= 3075.5\ngini = 0.399\nsamples = 178\nvalue = [129, 49]"] ;
3 -> 4 ;
5 [label="TotalCharges <= 2989.5\ngini = 0.448\nsamples = 127\nvalue = [84, 43]"] ;
4 -> 5 ;
6 [label="TotalCharges <= 1479.5\ngini = 0.441\nsamples = 125\nvalue = [84, 41]"] ;
5 -> 6 ;
7 [label="MonthlyCharges <= 19.125\ngini = 0.219\nsamples = 16\nvalue = [14, 2]"] ;
6 -> 7 ;
8 [label="TotalCharges <= 1342.5\ngini = 0.375\nsamples = 8\nvalue = [6, 2]"] ;
7 -> 8 ;
9 [label="gini = 0.0\nsamples = 1\nvalue = [1, 0]"] ;
8 -> 9 ;
10 [label="TotalCharges <= 1409.0\ngini = 0.408\nsamples = 7\nvalue = [5, 2]"] ;
8 -> 10 ;
11 [label="gini = 0.5\nsamples = 2\nvalue = [1, 1]"] ;
10 -> 11 ;
12 [label="MonthlyCharges <= 19.075\ngini = 0.32\nsamples = 5\nvalue = [4, 1]"] ;
10 -> 12 ;
13 [label="gini = 0.0\nsamples = 2\nvalue = [2, 0]"] ;
12 -> 13 ;
14 [label="gini = 0.444\nsamples = 3\nvalue = [2, 1]"] ;
12 -> 14 ;
15 [label="gini = 0.0\nsamples = 8\nvalue = [8, 0]"] ;
7 -> 15 ;
16 [label="TotalCharges <= 2561.0\ngini = 0.46\nsamples = 109\nvalue = [70, 39]"] ;
6 -> 16 ;
17 [label="MonthlyCharges <= 20.275\ngini = 0.471\nsamples = 103\nvalue = [64.0, 39.0]"] ;
16 -> 17 ;
18 [label="TotalCharges <= 1491.5\ngini = 0.486\nsamples = 77\nvalue = [45, 32]"] ;
17 -> 18 ;
19 [label="TotalCharges <= 1489.5\ngini = 0.42\nsamples = 40\nvalue = [28, 12]"] ;
18 -> 19 ;
20 [label="TotalCharges <= 1484.5\ngini = 0.438\nsamples = 37\nvalue = [25, 12]"] ;
19 -> 20 ;
21 [label="MonthlyCharges <= 19.425\ngini = 0.48\nsamples = 15\nvalue = [9, 6]"] ;
20 -> 21 ;
22 [label="MonthlyCharges <= 19.35\ngini = 0.42\nsamples = 10\nvalue = [7, 3]"] ;
21 -> 22 ;
23 [label="TotalCharges <= 1480.5\ngini = 0.49\nsamples = 7\nvalue = [4, 3]"] ;
22 -> 23 ;
24 [label="gini = 0.444\nsamples = 3\nvalue = [2, 1]"] ;
23 -> 24 ;
25 [label="gini = 0.5\nsamples = 4\nvalue = [2, 2]"] ;
23 -> 25 ;
26 [label="gini = 0.0\nsamples = 3\nvalue = [3, 0]"] ;
22 -> 26 ;
27 [label="MonthlyCharges <= 19.475\ngini = 0.48\nsamples = 5\nvalue = [2, 3]"] ;
21 -> 27 ;
28 [label="gini = 0.444\nsamples = 3\nvalue = [1, 2]"] ;
27 -> 28 ;
29 [label="gini = 0.5\nsamples = 2\nvalue = [1, 1]"] ;
27 -> 29 ;
30 [label="MonthlyCharges <= 19.575\ngini = 0.397\nsamples = 22\nvalue = [16, 6]"] ;
20 -> 30 ;
31 [label="gini = 0.0\nsamples = 6\nvalue = [6, 0]"] ;
30 -> 31 ;
32 [label="TotalCharges <= 1486.5\ngini = 0.469\nsamples = 16\nvalue = [10, 6]"] ;
30 -> 32 ;
33 [label="gini = 0.0\nsamples = 2\nvalue = [0, 2]"] ;
32 -> 33 ;
34 [label="TotalCharges <= 1488.5\ngini = 0.408\nsamples = 14\nvalue = [10, 4]"] ;
32 -> 34 ;
35 [label="TotalCharges <= 1487.5\ngini = 0.444\nsamples = 6\nvalue = [4, 2]"] ;
34 -> 35 ;
36 [label="gini = 0.375\nsamples = 4\nvalue = [3, 1]"] ;
35 -> 36 ;
37 [label="gini = 0.5\nsamples = 2\nvalue = [1, 1]"] ;
35 -> 37 ;
38 [label="gini = 0.375\nsamples = 8\nvalue = [6, 2]"] ;
34 -> 38 ;
39 [label="gini = 0.0\nsamples = 3\nvalue = [3, 0]"] ;
19 -> 39 ;
40 [label="MonthlyCharges <= 19.4\ngini = 0.497\nsamples = 37\nvalue = [17, 20]"] ;
18 -> 40 ;
41 [label="gini = 0.0\nsamples = 1\nvalue = [0, 1]"] ;
40 -> 41 ;
42 [label="MonthlyCharges <= 19.7\ngini = 0.498\nsamples = 36\nvalue = [17, 19]"] ;
40 -> 42 ;
43 [label="gini = 0.0\nsamples = 1\nvalue = [1, 0]"] ;
42 -> 43 ;
44 [label="TotalCharges <= 1610.5\ngini = 0.496\nsamples = 35\nvalue = [16, 19]"] ;
42 -> 44 ;
45 [label="TotalCharges <= 1607.5\ngini = 0.491\nsamples = 30\nvalue = [13, 17]"] ;
44 -> 45 ;
46 [label="TotalCharges <= 1550.0\ngini = 0.5\nsamples = 14\nvalue = [7, 7]"] ;
45 -> 46 ;
47 [label="TotalCharges <= 1492.5\ngini = 0.469\nsamples = 8\nvalue = [3, 5]"] ;
46 -> 47 ;
48 [label="gini = 0.5\nsamples = 6\nvalue = [3, 3]"] ;
47 -> 48 ;
49 [label="gini = 0.0\nsamples = 2\nvalue = [0, 2]"] ;
47 -> 49 ;
50 [label="gini = 0.444\nsamples = 6\nvalue = [4, 2]"] ;
46 -> 50 ;
51 [label="MonthlyCharges <= 20.125\ngini = 0.469\nsamples = 16\nvalue = [6, 10]"] ;
45 -> 51 ;
52 [label="gini = 0.0\nsamples = 2\nvalue = [0, 2]"] ;
51 -> 52 ;
53 [label="MonthlyCharges <= 20.175\ngini = 0.49\nsamples = 14\nvalue = [6, 8]"] ;
51 -> 53 ;
54 [label="gini = 0.5\nsamples = 4\nvalue = [2, 2]"] ;
53 -> 54 ;
55 [label="gini = 0.48\nsamples = 10\nvalue = [4, 6]"] ;
53 -> 55 ;
56 [label="gini = 0.48\nsamples = 5\nvalue = [3, 2]"] ;
44 -> 56 ;
57 [label="MonthlyCharges <= 20.475\ngini = 0.393\nsamples = 26\nvalue = [19, 7]"] ;
17 -> 57 ;
58 [label="TotalCharges <= 1612.5\ngini = 0.142\nsamples = 13\nvalue = [12, 1]"] ;
57 -> 58 ;
59 [label="gini = 0.32\nsamples = 5\nvalue = [4, 1]"] ;
58 -> 59 ;
60 [label="gini = 0.0\nsamples = 8\nvalue = [8, 0]"] ;
58 -> 60 ;
61 [label="TotalCharges <= 1617.5\ngini = 0.497\nsamples = 13\nvalue = [7, 6]"] ;
57 -> 61 ;
62 [label="MonthlyCharges <= 20.525\ngini = 0.408\nsamples = 7\nvalue = [2, 5]"] ;
61 -> 62 ;
63 [label="gini = 0.375\nsamples = 4\nvalue = [1, 3]"] ;
62 -> 63 ;
64 [label="gini = 0.444\nsamples = 3\nvalue = [1, 2]"] ;
62 -> 64 ;
65 [label="TotalCharges <= 1622.5\ngini = 0.278\nsamples = 6\nvalue = [5, 1]"] ;
61 -> 65 ;
66 [label="gini = 0.0\nsamples = 5\nvalue = [5, 0]"] ;
65 -> 66 ;
67 [label="gini = 0.0\nsamples = 1\nvalue = [0, 1]"] ;
65 -> 67 ;
68 [label="gini = 0.0\nsamples = 6\nvalue = [6, 0]"] ;
16 -> 68 ;
69 [label="gini = 0.0\nsamples = 2\nvalue = [0, 2]"] ;
5 -> 69 ;
70 [label="TotalCharges <= 4780.5\ngini = 0.208\nsamples = 51\nvalue = [45, 6]"] ;
4 -> 70 ;
71 [label="MonthlyCharges <= 20.525\ngini = 0.059\nsamples = 33\nvalue = [32, 1]"] ;
70 -> 71 ;
72 [label="gini = 0.0\nsamples = 28\nvalue = [28, 0]"] ;
71 -> 72 ;
73 [label="MonthlyCharges <= 20.625\ngini = 0.32\nsamples = 5\nvalue = [4, 1]"] ;
71 -> 73 ;
74 [label="TotalCharges <= 4501.5\ngini = 0.5\nsamples = 2\nvalue = [1, 1]"] ;
73 -> 74 ;
75 [label="gini = 0.0\nsamples = 1\nvalue = [0, 1]"] ;
74 -> 75 ;
76 [label="gini = 0.0\nsamples = 1\nvalue = [1, 0]"] ;
74 -> 76 ;
77 [label="gini = 0.0\nsamples = 3\nvalue = [3, 0]"] ;
73 -> 77 ;
78 [label="TotalCharges <= 4879.0\ngini = 0.401\nsamples = 18\nvalue = [13, 5]"] ;
70 -> 78 ;
79 [label="gini = 0.0\nsamples = 3\nvalue = [0, 3]"] ;
78 -> 79 ;
80 [label="MonthlyCharges <= 19.925\ngini = 0.231\nsamples = 15\nvalue = [13, 2]"] ;
78 -> 80 ;
81 [label="MonthlyCharges <= 19.75\ngini = 0.408\nsamples = 7\nvalue = [5, 2]"] ;
80 -> 81 ;
82 [label="gini = 0.0\nsamples = 5\nvalue = [5, 0]"] ;
81 -> 82 ;
83 [label="gini = 0.0\nsamples = 2\nvalue = [0, 2]"] ;
81 -> 83 ;
84 [label="gini = 0.0\nsamples = 8\nvalue = [8, 0]"] ;
80 -> 84 ;
85 [label="TotalCharges <= 30.0\ngini = 0.498\nsamples = 306\nvalue = [143, 163]"] ;
3 -> 85 ;
86 [label="gini = 0.0\nsamples = 7\nvalue = [7, 0]"] ;
85 -> 86 ;
87 [label="MonthlyCharges <= 60.2\ngini = 0.496\nsamples = 299\nvalue = [136, 163]"] ;
85 -> 87 ;
88 [label="TotalCharges <= 6078.5\ngini = 0.493\nsamples = 280\nvalue = [123, 157]"] ;
87 -> 88 ;
89 [label="TotalCharges <= 4566.5\ngini = 0.489\nsamples = 249\nvalue = [106, 143]"] ;
88 -> 89 ;
90 [label="TotalCharges <= 4560.5\ngini = 0.495\nsamples = 224\nvalue = [101.0, 123.0]"] ;
89 -> 90 ;
91 [label="MonthlyCharges <= 54.675\ngini = 0.493\nsamples = 218\nvalue = [96, 122]"] ;
90 -> 91 ;
92 [label="TotalCharges <= 115.5\ngini = 0.496\nsamples = 203\nvalue = [93, 110]"] ;
91 -> 92 ;
93 [label="gini = 0.0\nsamples = 3\nvalue = [3, 0]"] ;
92 -> 93 ;
94 [label="MonthlyCharges <= 54.45\ngini = 0.495\nsamples = 200\nvalue = [90.0, 110.0]"] ;
92 -> 94 ;
95 [label="TotalCharges <= 4226.5\ngini = 0.493\nsamples = 197\nvalue = [87, 110]"] ;
94 -> 95 ;
96 [label="TotalCharges <= 3905.5\ngini = 0.498\nsamples = 172\nvalue = [80.0, 92.0]"] ;
95 -> 96 ;
97 [label="TotalCharges <= 3815.5\ngini = 0.485\nsamples = 143\nvalue = [59, 84]"] ;
96 -> 97 ;
98 [label="TotalCharges <= 3813.5\ngini = 0.496\nsamples = 121\nvalue = [55, 66]"] ;
97 -> 98 ;
99 [label="TotalCharges <= 3780.5\ngini = 0.494\nsamples = 119\nvalue = [53, 66]"] ;
98 -> 99 ;
100 [label="TotalCharges <= 3658.5\ngini = 0.497\nsamples = 115\nvalue = [53, 62]"] ;
99 -> 100 ;
101 [label="TotalCharges <= 2945.5\ngini = 0.486\nsamples = 89\nvalue = [37, 52]"] ;
100 -> 101 ;
102 [label="TotalCharges <= 2593.5\ngini = 0.497\nsamples = 76\nvalue = [35, 41]"] ;
101 -> 102 ;
103 [label="TotalCharges <= 2506.5\ngini = 0.494\nsamples = 74\nvalue = [33, 41]"] ;
102 -> 103 ;
104 [label="TotalCharges <= 2504.5\ngini = 0.498\nsamples = 71\nvalue = [33, 38]"] ;
103 -> 104 ;
105 [label="TotalCharges <= 126.0\ngini = 0.495\nsamples = 69\nvalue = [31, 38]"] ;
104 -> 105 ;
106 [label="gini = 0.0\nsamples = 2\nvalue = [0, 2]"] ;
105 -> 106 ;
107 [label="TotalCharges <= 146.0\ngini = 0.497\nsamples = 67\nvalue = [31, 36]"] ;
105 -> 107 ;
108 [label="gini = 0.0\nsamples = 2\nvalue = [2, 0]"] ;
107 -> 108 ;
109 [label="TotalCharges <= 166.5\ngini = 0.494\nsamples = 65\nvalue = [29, 36]"] ;
107 -> 109 ;
110 [label="gini = 0.0\nsamples = 2\nvalue = [0, 2]"] ;
109 -> 110 ;
111 [label="TotalCharges <= 261.0\ngini = 0.497\nsamples = 63\nvalue = [29, 34]"] ;
109 -> 111 ;
112 [label="gini = 0.0\nsamples = 3\nvalue = [3, 0]"] ;
111 -> 112 ;
113 [label="TotalCharges <= 334.0\ngini = 0.491\nsamples = 60\nvalue = [26, 34]"] ;
111 -> 113 ;
114 [label="gini = 0.0\nsamples = 3\nvalue = [0, 3]"] ;
113 -> 114 ;
115 [label="TotalCharges <= 418.5\ngini = 0.496\nsamples = 57\nvalue = [26, 31]"] ;
113 -> 115 ;
116 [label="gini = 0.0\nsamples = 3\nvalue = [3, 0]"] ;
115 -> 116 ;
117 [label="TotalCharges <= 641.5\ngini = 0.489\nsamples = 54\nvalue = [23, 31]"] ;
115 -> 117 ;
118 [label="MonthlyCharges <= 45.55\ngini = 0.245\nsamples = 7\nvalue = [1, 6]"] ;
117 -> 118 ;
119 [label="gini = 0.0\nsamples = 5\nvalue = [0, 5]"] ;
118 -> 119 ;
120 [label="MonthlyCharges <= 48.0\ngini = 0.5\nsamples = 2\nvalue = [1, 1]"] ;
118 -> 120 ;
121 [label="gini = 0.0\nsamples = 1\nvalue = [1, 0]"] ;
120 -> 121 ;
122 [label="gini = 0.0\nsamples = 1\nvalue = [0, 1]"] ;
120 -> 122 ;
123 [label="TotalCharges <= 932.0\ngini = 0.498\nsamples = 47\nvalue = [22, 25]"] ;
117 -> 123 ;
124 [label="MonthlyCharges <= 45.4\ngini = 0.278\nsamples = 6\nvalue = [5, 1]"] ;
123 -> 124 ;
125 [label="TotalCharges <= 812.5\ngini = 0.5\nsamples = 2\nvalue = [1, 1]"] ;
124 -> 125 ;
126 [label="gini = 0.0\nsamples = 1\nvalue = [0, 1]"] ;
125 -> 126 ;
127 [label="gini = 0.0\nsamples = 1\nvalue = [1, 0]"] ;
125 -> 127 ;
128 [label="gini = 0.0\nsamples = 4\nvalue = [4, 0]"] ;
124 -> 128 ;
129 [label="MonthlyCharges <= 27.775\ngini = 0.485\nsamples = 41\nvalue = [17, 24]"] ;
123 -> 129 ;
130 [label="TotalCharges <= 2154.0\ngini = 0.496\nsamples = 35\nvalue = [16, 19]"] ;
129 -> 130 ;
131 [label="MonthlyCharges <= 24.75\ngini = 0.487\nsamples = 31\nvalue = [13, 18]"] ;
130 -> 131 ;
132 [label="TotalCharges <= 2041.5\ngini = 0.5\nsamples = 18\nvalue = [9, 9]"] ;
131 -> 132 ;
133 [label="MonthlyCharges <= 24.425\ngini = 0.492\nsamples = 16\nvalue = [7, 9]"] ;
132 -> 133 ;
134 [label="TotalCharges <= 2038.5\ngini = 0.5\nsamples = 14\nvalue = [7, 7]"] ;
133 -> 134 ;
135 [label="TotalCharges <= 2037.5\ngini = 0.486\nsamples = 12\nvalue = [5, 7]"] ;
134 -> 135 ;
136 [label="TotalCharges <= 2036.5\ngini = 0.496\nsamples = 11\nvalue = [5, 6]"] ;
135 -> 136 ;
137 [label="TotalCharges <= 2035.5\ngini = 0.48\nsamples = 10\nvalue = [4, 6]"] ;
136 -> 137 ;
138 [label="MonthlyCharges <= 23.725\ngini = 0.494\nsamples = 9\nvalue = [4, 5]"] ;
137 -> 138 ;
139 [label="TotalCharges <= 1834.5\ngini = 0.469\nsamples = 8\nvalue = [3, 5]"] ;
138 -> 139 ;
140 [label="MonthlyCharges <= 21.025\ngini = 0.49\nsamples = 7\nvalue = [3, 4]"] ;
139 -> 140 ;
141 [label="TotalCharges <= 1676.5\ngini = 0.444\nsamples = 6\nvalue = [2, 4]"] ;
140 -> 141 ;
142 [label="TotalCharges <= 1624.5\ngini = 0.48\nsamples = 5\nvalue = [2, 3]"] ;
141 -> 142 ;
143 [label="gini = 0.444\nsamples = 3\nvalue = [1, 2]"] ;
142 -> 143 ;
144 [label="gini = 0.5\nsamples = 2\nvalue = [1, 1]"] ;
142 -> 144 ;
145 [label="gini = 0.0\nsamples = 1\nvalue = [0, 1]"] ;
141 -> 145 ;
146 [label="gini = 0.0\nsamples = 1\nvalue = [1, 0]"] ;
140 -> 146 ;
147 [label="gini = 0.0\nsamples = 1\nvalue = [0, 1]"] ;
139 -> 147 ;
148 [label="gini = 0.0\nsamples = 1\nvalue = [1, 0]"] ;
138 -> 148 ;
149 [label="gini = 0.0\nsamples = 1\nvalue = [0, 1]"] ;
137 -> 149 ;
150 [label="gini = 0.0\nsamples = 1\nvalue = [1, 0]"] ;
136 -> 150 ;
151 [label="gini = 0.0\nsamples = 1\nvalue = [0, 1]"] ;
135 -> 151 ;
152 [label="gini = 0.0\nsamples = 2\nvalue = [2, 0]"] ;
134 -> 152 ;
153 [label="gini = 0.0\nsamples = 2\nvalue = [0, 2]"] ;
133 -> 153 ;
154 [label="gini = 0.0\nsamples = 2\nvalue = [2, 0]"] ;
132 -> 154 ;
155 [label="MonthlyCharges <= 24.9\ngini = 0.426\nsamples = 13\nvalue = [4, 9]"] ;
131 -> 155 ;
156 [label="gini = 0.0\nsamples = 2\nvalue = [0, 2]"] ;
155 -> 156 ;
157 [label="TotalCharges <= 2147.5\ngini = 0.463\nsamples = 11\nvalue = [4, 7]"] ;
155 -> 157 ;
158 [label="gini = 0.0\nsamples = 1\nvalue = [1, 0]"] ;
157 -> 158 ;
159 [label="MonthlyCharges <= 25.125\ngini = 0.42\nsamples = 10\nvalue = [3, 7]"] ;
157 -> 159 ;
160 [label="gini = 0.0\nsamples = 3\nvalue = [0, 3]"] ;
159 -> 160 ;
161 [label="TotalCharges <= 2152.5\ngini = 0.49\nsamples = 7\nvalue = [3, 4]"] ;
159 -> 161 ;
162 [label="MonthlyCharges <= 25.225\ngini = 0.5\nsamples = 6\nvalue = [3, 3]"] ;
161 -> 162 ;
163 [label="MonthlyCharges <= 25.175\ngini = 0.444\nsamples = 3\nvalue = [1, 2]"] ;
162 -> 163 ;
164 [label="gini = 0.5\nsamples = 2\nvalue = [1, 1]"] ;
163 -> 164 ;
165 [label="gini = 0.0\nsamples = 1\nvalue = [0, 1]"] ;
163 -> 165 ;
166 [label="gini = 0.444\nsamples = 3\nvalue = [2, 1]"] ;
162 -> 166 ;
167 [label="gini = 0.0\nsamples = 1\nvalue = [0, 1]"] ;
161 -> 167 ;
168 [label="MonthlyCharges <= 25.75\ngini = 0.375\nsamples = 4\nvalue = [3, 1]"] ;
130 -> 168 ;
169 [label="gini = 0.0\nsamples = 2\nvalue = [2, 0]"] ;
168 -> 169 ;
170 [label="TotalCharges <= 2158.5\ngini = 0.5\nsamples = 2\nvalue = [1, 1]"] ;
168 -> 170 ;
171 [label="gini = 0.0\nsamples = 1\nvalue = [0, 1]"] ;
170 -> 171 ;
172 [label="gini = 0.0\nsamples = 1\nvalue = [1, 0]"] ;
170 -> 172 ;
173 [label="TotalCharges <= 1113.0\ngini = 0.278\nsamples = 6\nvalue = [1, 5]"] ;
129 -> 173 ;
174 [label="MonthlyCharges <= 50.375\ngini = 0.5\nsamples = 2\nvalue = [1, 1]"] ;
173 -> 174 ;
175 [label="gini = 0.0\nsamples = 1\nvalue = [1, 0]"] ;
174 -> 175 ;
176 [label="gini = 0.0\nsamples = 1\nvalue = [0, 1]"] ;
174 -> 176 ;
177 [label="gini = 0.0\nsamples = 4\nvalue = [0, 4]"] ;
173 -> 177 ;
178 [label="gini = 0.0\nsamples = 2\nvalue = [2, 0]"] ;
104 -> 178 ;
179 [label="gini = 0.0\nsamples = 3\nvalue = [0, 3]"] ;
103 -> 179 ;
180 [label="gini = 0.0\nsamples = 2\nvalue = [2, 0]"] ;
102 -> 180 ;
181 [label="MonthlyCharges <= 24.325\ngini = 0.26\nsamples = 13\nvalue = [2, 11]"] ;
101 -> 181 ;
182 [label="gini = 0.0\nsamples = 1\nvalue = [1, 0]"] ;
181 -> 182 ;
183 [label="TotalCharges <= 3074.5\ngini = 0.153\nsamples = 12\nvalue = [1, 11]"] ;
181 -> 183 ;
184 [label="MonthlyCharges <= 35.825\ngini = 0.278\nsamples = 6\nvalue = [1, 5]"] ;
183 -> 184 ;
185 [label="gini = 0.0\nsamples = 4\nvalue = [0, 4]"] ;
184 -> 185 ;
186 [label="gini = 0.5\nsamples = 2\nvalue = [1, 1]"] ;
184 -> 186 ;
187 [label="gini = 0.0\nsamples = 6\nvalue = [0, 6]"] ;
183 -> 187 ;
188 [label="MonthlyCharges <= 44.075\ngini = 0.473\nsamples = 26\nvalue = [16, 10]"] ;
100 -> 188 ;
189 [label="TotalCharges <= 3697.5\ngini = 0.198\nsamples = 9\nvalue = [8, 1]"] ;
188 -> 189 ;
190 [label="MonthlyCharges <= 43.9\ngini = 0.375\nsamples = 4\nvalue = [3, 1]"] ;
189 -> 190 ;
191 [label="gini = 0.0\nsamples = 2\nvalue = [2, 0]"] ;
190 -> 191 ;
192 [label="gini = 0.5\nsamples = 2\nvalue = [1, 1]"] ;
190 -> 192 ;
193 [label="gini = 0.0\nsamples = 5\nvalue = [5, 0]"] ;
189 -> 193 ;
194 [label="MonthlyCharges <= 44.725\ngini = 0.498\nsamples = 17\nvalue = [8, 9]"] ;
188 -> 194 ;
195 [label="MonthlyCharges <= 44.625\ngini = 0.473\nsamples = 13\nvalue = [5, 8]"] ;
194 -> 195 ;
196 [label="TotalCharges <= 3742.5\ngini = 0.496\nsamples = 11\nvalue = [5, 6]"] ;
195 -> 196 ;
197 [label="MonthlyCharges <= 44.325\ngini = 0.444\nsamples = 9\nvalue = [3, 6]"] ;
196 -> 197 ;
198 [label="TotalCharges <= 3736.5\ngini = 0.5\nsamples = 4\nvalue = [2, 2]"] ;
197 -> 198 ;
199 [label="gini = 0.0\nsamples = 1\nvalue = [0, 1]"] ;
198 -> 199 ;
200 [label="MonthlyCharges <= 44.225\ngini = 0.444\nsamples = 3\nvalue = [2, 1]"] ;
198 -> 200 ;
201 [label="gini = 0.5\nsamples = 2\nvalue = [1, 1]"] ;
200 -> 201 ;
202 [label="gini = 0.0\nsamples = 1\nvalue = [1, 0]"] ;
200 -> 202 ;
203 [label="TotalCharges <= 3741.5\ngini = 0.32\nsamples = 5\nvalue = [1, 4]"] ;
197 -> 203 ;
204 [label="gini = 0.0\nsamples = 3\nvalue = [0, 3]"] ;
203 -> 204 ;
205 [label="gini = 0.5\nsamples = 2\nvalue = [1, 1]"] ;
203 -> 205 ;
206 [label="gini = 0.0\nsamples = 2\nvalue = [2, 0]"] ;
196 -> 206 ;
207 [label="gini = 0.0\nsamples = 2\nvalue = [0, 2]"] ;
195 -> 207 ;
208 [label="MonthlyCharges <= 44.825\ngini = 0.375\nsamples = 4\nvalue = [3, 1]"] ;
194 -> 208 ;
209 [label="gini = 0.0\nsamples = 2\nvalue = [2, 0]"] ;
208 -> 209 ;
210 [label="MonthlyCharges <= 44.925\ngini = 0.5\nsamples = 2\nvalue = [1, 1]"] ;
208 -> 210 ;
211 [label="gini = 0.0\nsamples = 1\nvalue = [0, 1]"] ;
210 -> 211 ;
212 [label="gini = 0.0\nsamples = 1\nvalue = [1, 0]"] ;
210 -> 212 ;
213 [label="gini = 0.0\nsamples = 4\nvalue = [0, 4]"] ;
99 -> 213 ;
214 [label="gini = 0.0\nsamples = 2\nvalue = [2, 0]"] ;
98 -> 214 ;
215 [label="TotalCharges <= 3816.5\ngini = 0.298\nsamples = 22\nvalue = [4, 18]"] ;
97 -> 215 ;
216 [label="gini = 0.0\nsamples = 4\nvalue = [0, 4]"] ;
215 -> 216 ;
217 [label="TotalCharges <= 3817.5\ngini = 0.346\nsamples = 18\nvalue = [4, 14]"] ;
215 -> 217 ;
218 [label="gini = 0.0\nsamples = 1\nvalue = [1, 0]"] ;
217 -> 218 ;
219 [label="MonthlyCharges <= 45.9\ngini = 0.291\nsamples = 17\nvalue = [3, 14]"] ;
217 -> 219 ;
220 [label="TotalCharges <= 3823.5\ngini = 0.355\nsamples = 13\nvalue = [3, 10]"] ;
219 -> 220 ;
221 [label="TotalCharges <= 3820.5\ngini = 0.219\nsamples = 8\nvalue = [1, 7]"] ;
220 -> 221 ;
222 [label="MonthlyCharges <= 45.5\ngini = 0.444\nsamples = 3\nvalue = [1, 2]"] ;
221 -> 222 ;
223 [label="gini = 0.0\nsamples = 1\nvalue = [0, 1]"] ;
222 -> 223 ;
224 [label="gini = 0.5\nsamples = 2\nvalue = [1, 1]"] ;
222 -> 224 ;
225 [label="gini = 0.0\nsamples = 5\nvalue = [0, 5]"] ;
221 -> 225 ;
226 [label="MonthlyCharges <= 45.825\ngini = 0.48\nsamples = 5\nvalue = [2, 3]"] ;
220 -> 226 ;
227 [label="gini = 0.5\nsamples = 2\nvalue = [1, 1]"] ;
226 -> 227 ;
228 [label="gini = 0.444\nsamples = 3\nvalue = [1, 2]"] ;
226 -> 228 ;
229 [label="gini = 0.0\nsamples = 4\nvalue = [0, 4]"] ;
219 -> 229 ;
230 [label="MonthlyCharges <= 24.475\ngini = 0.4\nsamples = 29\nvalue = [21, 8]"] ;
96 -> 230 ;
231 [label="gini = 0.0\nsamples = 1\nvalue = [0, 1]"] ;
230 -> 231 ;
232 [label="MonthlyCharges <= 48.85\ngini = 0.375\nsamples = 28\nvalue = [21, 7]"] ;
230 -> 232 ;
233 [label="gini = 0.0\nsamples = 6\nvalue = [6, 0]"] ;
232 -> 233 ;
234 [label="TotalCharges <= 4095.0\ngini = 0.434\nsamples = 22\nvalue = [15.0, 7.0]"] ;
232 -> 234 ;
235 [label="gini = 0.0\nsamples = 1\nvalue = [0, 1]"] ;
234 -> 235 ;
236 [label="TotalCharges <= 4225.5\ngini = 0.408\nsamples = 21\nvalue = [15, 6]"] ;
234 -> 236 ;
237 [label="MonthlyCharges <= 49.15\ngini = 0.444\nsamples = 18\nvalue = [12, 6]"] ;
236 -> 237 ;
238 [label="gini = 0.0\nsamples = 2\nvalue = [2, 0]"] ;
237 -> 238 ;
239 [label="MonthlyCharges <= 49.275\ngini = 0.469\nsamples = 16\nvalue = [10, 6]"] ;
237 -> 239 ;
240 [label="gini = 0.0\nsamples = 1\nvalue = [0, 1]"] ;
239 -> 240 ;
241 [label="TotalCharges <= 4140.5\ngini = 0.444\nsamples = 15\nvalue = [10, 5]"] ;
239 -> 241 ;
242 [label="gini = 0.0\nsamples = 2\nvalue = [2, 0]"] ;
241 -> 242 ;
243 [label="MonthlyCharges <= 49.7\ngini = 0.473\nsamples = 13\nvalue = [8, 5]"] ;
241 -> 243 ;
244 [label="TotalCharges <= 4141.5\ngini = 0.444\nsamples = 3\nvalue = [1, 2]"] ;
243 -> 244 ;
245 [label="gini = 0.5\nsamples = 2\nvalue = [1, 1]"] ;
244 -> 245 ;
246 [label="gini = 0.0\nsamples = 1\nvalue = [0, 1]"] ;
244 -> 246 ;
247 [label="MonthlyCharges <= 49.925\ngini = 0.42\nsamples = 10\nvalue = [7, 3]"] ;
243 -> 247 ;
248 [label="TotalCharges <= 4146.0\ngini = 0.278\nsamples = 6\nvalue = [5, 1]"] ;
247 -> 248 ;
249 [label="gini = 0.0\nsamples = 2\nvalue = [2, 0]"] ;
248 -> 249 ;
250 [label="gini = 0.375\nsamples = 4\nvalue = [3, 1]"] ;
248 -> 250 ;
251 [label="TotalCharges <= 4186.5\ngini = 0.5\nsamples = 4\nvalue = [2, 2]"] ;
247 -> 251 ;
252 [label="gini = 0.5\nsamples = 2\nvalue = [1, 1]"] ;
251 -> 252 ;
253 [label="gini = 0.5\nsamples = 2\nvalue = [1, 1]"] ;
251 -> 253 ;
254 [label="gini = 0.0\nsamples = 3\nvalue = [3, 0]"] ;
236 -> 254 ;
255 [label="TotalCharges <= 4232.0\ngini = 0.403\nsamples = 25\nvalue = [7.0, 18.0]"] ;
95 -> 255 ;
256 [label="gini = 0.0\nsamples = 8\nvalue = [0, 8]"] ;
255 -> 256 ;
257 [label="MonthlyCharges <= 50.775\ngini = 0.484\nsamples = 17\nvalue = [7, 10]"] ;
255 -> 257 ;
258 [label="MonthlyCharges <= 50.725\ngini = 0.32\nsamples = 5\nvalue = [4, 1]"] ;
257 -> 258 ;
259 [label="gini = 0.0\nsamples = 2\nvalue = [2, 0]"] ;
258 -> 259 ;
260 [label="gini = 0.444\nsamples = 3\nvalue = [2, 1]"] ;
258 -> 260 ;
261 [label="MonthlyCharges <= 51.05\ngini = 0.375\nsamples = 12\nvalue = [3, 9]"] ;
257 -> 261 ;
262 [label="gini = 0.0\nsamples = 3\nvalue = [0, 3]"] ;
261 -> 262 ;
263 [label="MonthlyCharges <= 51.225\ngini = 0.444\nsamples = 9\nvalue = [3, 6]"] ;
261 -> 263 ;
264 [label="gini = 0.0\nsamples = 1\nvalue = [1, 0]"] ;
263 -> 264 ;
265 [label="TotalCharges <= 4432.5\ngini = 0.375\nsamples = 8\nvalue = [2, 6]"] ;
263 -> 265 ;
266 [label="gini = 0.0\nsamples = 3\nvalue = [0, 3]"] ;
265 -> 266 ;
267 [label="TotalCharges <= 4486.5\ngini = 0.48\nsamples = 5\nvalue = [2, 3]"] ;
265 -> 267 ;
268 [label="TotalCharges <= 4460.0\ngini = 0.5\nsamples = 4\nvalue = [2, 2]"] ;
267 -> 268 ;
269 [label="MonthlyCharges <= 53.75\ngini = 0.444\nsamples = 3\nvalue = [1, 2]"] ;
268 -> 269 ;
270 [label="gini = 0.5\nsamples = 2\nvalue = [1, 1]"] ;
269 -> 270 ;
271 [label="gini = 0.0\nsamples = 1\nvalue = [0, 1]"] ;
269 -> 271 ;
272 [label="gini = 0.0\nsamples = 1\nvalue = [1, 0]"] ;
268 -> 272 ;
273 [label="gini = 0.0\nsamples = 1\nvalue = [0, 1]"] ;
267 -> 273 ;
274 [label="gini = 0.0\nsamples = 3\nvalue = [3, 0]"] ;
94 -> 274 ;
275 [label="MonthlyCharges <= 56.35\ngini = 0.32\nsamples = 15\nvalue = [3, 12]"] ;
91 -> 275 ;
276 [label="TotalCharges <= 203.5\ngini = 0.142\nsamples = 13\nvalue = [1, 12]"] ;
275 -> 276 ;
277 [label="MonthlyCharges <= 55.175\ngini = 0.444\nsamples = 3\nvalue = [1, 2]"] ;
276 -> 277 ;
278 [label="gini = 0.0\nsamples = 2\nvalue = [0, 2]"] ;
277 -> 278 ;
279 [label="gini = 0.0\nsamples = 1\nvalue = [1, 0]"] ;
277 -> 279 ;
280 [label="gini = 0.0\nsamples = 10\nvalue = [0, 10]"] ;
276 -> 280 ;
281 [label="gini = 0.0\nsamples = 2\nvalue = [2, 0]"] ;
275 -> 281 ;
282 [label="TotalCharges <= 4565.5\ngini = 0.278\nsamples = 6\nvalue = [5, 1]"] ;
90 -> 282 ;
283 [label="gini = 0.0\nsamples = 4\nvalue = [4, 0]"] ;
282 -> 283 ;
284 [label="gini = 0.5\nsamples = 2\nvalue = [1, 1]"] ;
282 -> 284 ;
285 [label="TotalCharges <= 4843.0\ngini = 0.32\nsamples = 25\nvalue = [5, 20]"] ;
89 -> 285 ;
286 [label="gini = 0.0\nsamples = 6\nvalue = [0, 6]"] ;
285 -> 286 ;
287 [label="TotalCharges <= 4877.5\ngini = 0.388\nsamples = 19\nvalue = [5, 14]"] ;
285 -> 287 ;
288 [label="gini = 0.0\nsamples = 1\nvalue = [1, 0]"] ;
287 -> 288 ;
289 [label="MonthlyCharges <= 45.625\ngini = 0.346\nsamples = 18\nvalue = [4, 14]"] ;
287 -> 289 ;
290 [label="MonthlyCharges <= 44.95\ngini = 0.408\nsamples = 14\nvalue = [4, 10]"] ;
289 -> 290 ;
291 [label="MonthlyCharges <= 32.475\ngini = 0.278\nsamples = 12\nvalue = [2, 10]"] ;
290 -> 291 ;
292 [label="MonthlyCharges <= 30.05\ngini = 0.444\nsamples = 6\nvalue = [2, 4]"] ;
291 -> 292 ;
293 [label="TotalCharges <= 5970.0\ngini = 0.32\nsamples = 5\nvalue = [1, 4]"] ;
292 -> 293 ;
294 [label="gini = 0.0\nsamples = 4\nvalue = [0, 4]"] ;
293 -> 294 ;
295 [label="gini = 0.0\nsamples = 1\nvalue = [1, 0]"] ;
293 -> 295 ;
296 [label="gini = 0.0\nsamples = 1\nvalue = [1, 0]"] ;
292 -> 296 ;
297 [label="gini = 0.0\nsamples = 6\nvalue = [0, 6]"] ;
291 -> 297 ;
298 [label="gini = 0.0\nsamples = 2\nvalue = [2, 0]"] ;
290 -> 298 ;
299 [label="gini = 0.0\nsamples = 4\nvalue = [0, 4]"] ;
289 -> 299 ;
300 [label="TotalCharges <= 6322.0\ngini = 0.495\nsamples = 31\nvalue = [17, 14]"] ;
88 -> 300 ;
301 [label="MonthlyCharges <= 44.725\ngini = 0.355\nsamples = 13\nvalue = [10, 3]"] ;
300 -> 301 ;
302 [label="gini = 0.0\nsamples = 7\nvalue = [7, 0]"] ;
301 -> 302 ;
303 [label="MonthlyCharges <= 45.975\ngini = 0.5\nsamples = 6\nvalue = [3, 3]"] ;
301 -> 303 ;
304 [label="TotalCharges <= 6302.0\ngini = 0.375\nsamples = 4\nvalue = [1, 3]"] ;
303 -> 304 ;
305 [label="gini = 0.0\nsamples = 3\nvalue = [0, 3]"] ;
304 -> 305 ;
306 [label="gini = 0.0\nsamples = 1\nvalue = [1, 0]"] ;
304 -> 306 ;
307 [label="gini = 0.0\nsamples = 2\nvalue = [2, 0]"] ;
303 -> 307 ;
308 [label="MonthlyCharges <= 49.775\ngini = 0.475\nsamples = 18\nvalue = [7, 11]"] ;
300 -> 308 ;
309 [label="MonthlyCharges <= 30.45\ngini = 0.43\nsamples = 16\nvalue = [5, 11]"] ;
308 -> 309 ;
310 [label="TotalCharges <= 6357.0\ngini = 0.375\nsamples = 4\nvalue = [3, 1]"] ;
309 -> 310 ;
311 [label="gini = 0.0\nsamples = 1\nvalue = [0, 1]"] ;
310 -> 311 ;
312 [label="gini = 0.0\nsamples = 3\nvalue = [3, 0]"] ;
310 -> 312 ;
313 [label="MonthlyCharges <= 38.375\ngini = 0.278\nsamples = 12\nvalue = [2, 10]"] ;
309 -> 313 ;
314 [label="gini = 0.0\nsamples = 3\nvalue = [0, 3]"] ;
313 -> 314 ;
315 [label="MonthlyCharges <= 42.225\ngini = 0.346\nsamples = 9\nvalue = [2, 7]"] ;
313 -> 315 ;
316 [label="gini = 0.0\nsamples = 1\nvalue = [1, 0]"] ;
315 -> 316 ;
317 [label="TotalCharges <= 6437.5\ngini = 0.219\nsamples = 8\nvalue = [1, 7]"] ;
315 -> 317 ;
318 [label="gini = 0.0\nsamples = 5\nvalue = [0, 5]"] ;
317 -> 318 ;
319 [label="TotalCharges <= 6481.5\ngini = 0.444\nsamples = 3\nvalue = [1, 2]"] ;
317 -> 319 ;
320 [label="gini = 0.0\nsamples = 1\nvalue = [1, 0]"] ;
319 -> 320 ;
321 [label="gini = 0.0\nsamples = 2\nvalue = [0, 2]"] ;
319 -> 321 ;
322 [label="gini = 0.0\nsamples = 2\nvalue = [2, 0]"] ;
308 -> 322 ;
323 [label="MonthlyCharges <= 65.825\ngini = 0.432\nsamples = 19\nvalue = [13, 6]"] ;
87 -> 323 ;
324 [label="MonthlyCharges <= 61.625\ngini = 0.305\nsamples = 16\nvalue = [13, 3]"] ;
323 -> 324 ;
325 [label="gini = 0.0\nsamples = 6\nvalue = [6, 0]"] ;
324 -> 325 ;
326 [label="MonthlyCharges <= 62.1\ngini = 0.42\nsamples = 10\nvalue = [7, 3]"] ;
324 -> 326 ;
327 [label="gini = 0.0\nsamples = 2\nvalue = [0, 2]"] ;
326 -> 327 ;
328 [label="TotalCharges <= 1118.0\ngini = 0.219\nsamples = 8\nvalue = [7, 1]"] ;
326 -> 328 ;
329 [label="tenure <= 2.5\ngini = 0.444\nsamples = 3\nvalue = [2, 1]"] ;
328 -> 329 ;
330 [label="gini = 0.0\nsamples = 2\nvalue = [2, 0]"] ;
329 -> 330 ;
331 [label="gini = 0.0\nsamples = 1\nvalue = [0, 1]"] ;
329 -> 331 ;
332 [label="gini = 0.0\nsamples = 5\nvalue = [5, 0]"] ;
328 -> 332 ;
333 [label="gini = 0.0\nsamples = 3\nvalue = [0, 3]"] ;
323 -> 333 ;
334 [label="MonthlyCharges <= 20.9\ngini = 0.3\nsamples = 630\nvalue = [514.0, 116.0]"] ;
2 -> 334 ;
335 [label="MonthlyCharges <= 20.375\ngini = 0.147\nsamples = 238\nvalue = [219, 19]"] ;
334 -> 335 ;
336 [label="TotalCharges <= 1422.0\ngini = 0.175\nsamples = 196\nvalue = [177, 19]"] ;
335 -> 336 ;
337 [label="tenure <= 10.5\ngini = 0.259\nsamples = 72\nvalue = [61, 11]"] ;
336 -> 337 ;
338 [label="TotalCharges <= 1414.0\ngini = 0.242\nsamples = 71\nvalue = [61, 10]"] ;
337 -> 338 ;
339 [label="tenure <= 5.5\ngini = 0.224\nsamples = 70\nvalue = [61, 9]"] ;
338 -> 339 ;
340 [label="MonthlyCharges <= 19.9\ngini = 0.408\nsamples = 7\nvalue = [5, 2]"] ;
339 -> 340 ;
341 [label="tenure <= 4.5\ngini = 0.444\nsamples = 3\nvalue = [1, 2]"] ;
340 -> 341 ;
342 [label="gini = 0.0\nsamples = 1\nvalue = [1, 0]"] ;
341 -> 342 ;
343 [label="gini = 0.0\nsamples = 2\nvalue = [0, 2]"] ;
341 -> 343 ;
344 [label="gini = 0.0\nsamples = 4\nvalue = [4, 0]"] ;
340 -> 344 ;
345 [label="TotalCharges <= 660.5\ngini = 0.198\nsamples = 63\nvalue = [56, 7]"] ;
339 -> 345 ;
346 [label="MonthlyCharges <= 19.35\ngini = 0.095\nsamples = 20\nvalue = [19, 1]"] ;
345 -> 346 ;
347 [label="MonthlyCharges <= 19.125\ngini = 0.375\nsamples = 4\nvalue = [3, 1]"] ;
346 -> 347 ;
348 [label="gini = 0.0\nsamples = 3\nvalue = [3, 0]"] ;
347 -> 348 ;
349 [label="gini = 0.0\nsamples = 1\nvalue = [0, 1]"] ;
347 -> 349 ;
350 [label="gini = 0.0\nsamples = 16\nvalue = [16, 0]"] ;
346 -> 350 ;
351 [label="TotalCharges <= 676.5\ngini = 0.24\nsamples = 43\nvalue = [37, 6]"] ;
345 -> 351 ;
352 [label="gini = 0.0\nsamples = 1\nvalue = [0, 1]"] ;
351 -> 352 ;
353 [label="tenure <= 6.5\ngini = 0.21\nsamples = 42\nvalue = [37, 5]"] ;
351 -> 353 ;
354 [label="TotalCharges <= 766.5\ngini = 0.5\nsamples = 2\nvalue = [1, 1]"] ;
353 -> 354 ;
355 [label="gini = 0.0\nsamples = 1\nvalue = [1, 0]"] ;
354 -> 355 ;
356 [label="gini = 0.0\nsamples = 1\nvalue = [0, 1]"] ;
354 -> 356 ;
357 [label="MonthlyCharges <= 19.6\ngini = 0.18\nsamples = 40\nvalue = [36, 4]"] ;
353 -> 357 ;
358 [label="gini = 0.0\nsamples = 13\nvalue = [13, 0]"] ;
357 -> 358 ;
359 [label="MonthlyCharges <= 19.775\ngini = 0.252\nsamples = 27\nvalue = [23, 4]"] ;
357 -> 359 ;
360 [label="TotalCharges <= 1142.5\ngini = 0.48\nsamples = 5\nvalue = [3, 2]"] ;
359 -> 360 ;
361 [label="gini = 0.0\nsamples = 2\nvalue = [0, 2]"] ;
360 -> 361 ;
362 [label="gini = 0.0\nsamples = 3\nvalue = [3, 0]"] ;
360 -> 362 ;
363 [label="MonthlyCharges <= 20.125\ngini = 0.165\nsamples = 22\nvalue = [20, 2]"] ;
359 -> 363 ;
364 [label="gini = 0.0\nsamples = 11\nvalue = [11, 0]"] ;
363 -> 364 ;
365 [label="TotalCharges <= 1296.5\ngini = 0.298\nsamples = 11\nvalue = [9, 2]"] ;
363 -> 365 ;
366 [label="MonthlyCharges <= 20.175\ngini = 0.18\nsamples = 10\nvalue = [9, 1]"] ;
365 -> 366 ;
367 [label="TotalCharges <= 1054.5\ngini = 0.444\nsamples = 3\nvalue = [2, 1]"] ;
366 -> 367 ;
368 [label="gini = 0.0\nsamples = 1\nvalue = [0, 1]"] ;
367 -> 368 ;
369 [label="gini = 0.0\nsamples = 2\nvalue = [2, 0]"] ;
367 -> 369 ;
370 [label="gini = 0.0\nsamples = 7\nvalue = [7, 0]"] ;
366 -> 370 ;
371 [label="gini = 0.0\nsamples = 1\nvalue = [0, 1]"] ;
365 -> 371 ;
372 [label="gini = 0.0\nsamples = 1\nvalue = [0, 1]"] ;
338 -> 372 ;
373 [label="gini = 0.0\nsamples = 1\nvalue = [0, 1]"] ;
337 -> 373 ;
374 [label="MonthlyCharges <= 20.325\ngini = 0.121\nsamples = 124\nvalue = [116, 8]"] ;
336 -> 374 ;
375 [label="tenure <= 14.5\ngini = 0.097\nsamples = 118\nvalue = [112, 6]"] ;
374 -> 375 ;
376 [label="MonthlyCharges <= 19.025\ngini = 0.043\nsamples = 90\nvalue = [88, 2]"] ;
375 -> 376 ;
377 [label="TotalCharges <= 2084.5\ngini = 0.32\nsamples = 5\nvalue = [4, 1]"] ;
376 -> 377 ;
378 [label="gini = 0.0\nsamples = 1\nvalue = [0, 1]"] ;
377 -> 378 ;
379 [label="gini = 0.0\nsamples = 4\nvalue = [4, 0]"] ;
377 -> 379 ;
380 [label="TotalCharges <= 1767.5\ngini = 0.023\nsamples = 85\nvalue = [84, 1]"] ;
376 -> 380 ;
381 [label="TotalCharges <= 1754.0\ngini = 0.117\nsamples = 16\nvalue = [15, 1]"] ;
380 -> 381 ;
382 [label="gini = 0.0\nsamples = 15\nvalue = [15, 0]"] ;
381 -> 382 ;
383 [label="gini = 0.0\nsamples = 1\nvalue = [0, 1]"] ;
381 -> 383 ;
384 [label="gini = 0.0\nsamples = 69\nvalue = [69, 0]"] ;
380 -> 384 ;
385 [label="TotalCharges <= 2958.5\ngini = 0.245\nsamples = 28\nvalue = [24, 4]"] ;
375 -> 385 ;
386 [label="MonthlyCharges <= 20.2\ngini = 0.198\nsamples = 27\nvalue = [24, 3]"] ;
385 -> 386 ;
387 [label="TotalCharges <= 2575.5\ngini = 0.142\nsamples = 26\nvalue = [24, 2]"] ;
386 -> 387 ;
388 [label="TotalCharges <= 2560.0\ngini = 0.26\nsamples = 13\nvalue = [11, 2]"] ;
387 -> 388 ;
389 [label="MonthlyCharges <= 19.9\ngini = 0.153\nsamples = 12\nvalue = [11, 1]"] ;
388 -> 389 ;
390 [label="gini = 0.0\nsamples = 8\nvalue = [8, 0]"] ;
389 -> 390 ;
391 [label="tenure <= 15.5\ngini = 0.375\nsamples = 4\nvalue = [3, 1]"] ;
389 -> 391 ;
392 [label="TotalCharges <= 2471.5\ngini = 0.5\nsamples = 2\nvalue = [1, 1]"] ;
391 -> 392 ;
393 [label="gini = 0.0\nsamples = 1\nvalue = [1, 0]"] ;
392 -> 393 ;
394 [label="gini = 0.0\nsamples = 1\nvalue = [0, 1]"] ;
392 -> 394 ;
395 [label="gini = 0.0\nsamples = 2\nvalue = [2, 0]"] ;
391 -> 395 ;
396 [label="gini = 0.0\nsamples = 1\nvalue = [0, 1]"] ;
388 -> 396 ;
397 [label="gini = 0.0\nsamples = 13\nvalue = [13, 0]"] ;
387 -> 397 ;
398 [label="gini = 0.0\nsamples = 1\nvalue = [0, 1]"] ;
386 -> 398 ;
399 [label="gini = 0.0\nsamples = 1\nvalue = [0, 1]"] ;
385 -> 399 ;
400 [label="tenure <= 4.5\ngini = 0.444\nsamples = 6\nvalue = [4, 2]"] ;
374 -> 400 ;
401 [label="gini = 0.0\nsamples = 2\nvalue = [0, 2]"] ;
400 -> 401 ;
402 [label="gini = 0.0\nsamples = 4\nvalue = [4, 0]"] ;
400 -> 402 ;
403 [label="gini = 0.0\nsamples = 42\nvalue = [42, 0]"] ;
335 -> 403 ;
404 [label="TotalCharges <= 2696.0\ngini = 0.372\nsamples = 392\nvalue = [295, 97]"] ;
334 -> 404 ;
405 [label="MonthlyCharges <= 25.45\ngini = 0.449\nsamples = 150\nvalue = [99.0, 51.0]"] ;
404 -> 405 ;
406 [label="tenure <= 12.5\ngini = 0.271\nsamples = 31\nvalue = [26, 5]"] ;
405 -> 406 ;
407 [label="TotalCharges <= 276.5\ngini = 0.231\nsamples = 30\nvalue = [26, 4]"] ;
406 -> 407 ;
408 [label="TotalCharges <= 30.0\ngini = 0.48\nsamples = 5\nvalue = [3, 2]"] ;
407 -> 408 ;
409 [label="gini = 0.0\nsamples = 2\nvalue = [2, 0]"] ;
408 -> 409 ;
410 [label="tenure <= 5.5\ngini = 0.444\nsamples = 3\nvalue = [1, 2]"] ;
408 -> 410 ;
411 [label="gini = 0.0\nsamples = 2\nvalue = [0, 2]"] ;
410 -> 411 ;
412 [label="gini = 0.0\nsamples = 1\nvalue = [1, 0]"] ;
410 -> 412 ;
413 [label="TotalCharges <= 2101.5\ngini = 0.147\nsamples = 25\nvalue = [23, 2]"] ;
407 -> 413 ;
414 [label="gini = 0.0\nsamples = 16\nvalue = [16, 0]"] ;
413 -> 414 ;
415 [label="TotalCharges <= 2254.5\ngini = 0.346\nsamples = 9\nvalue = [7, 2]"] ;
413 -> 415 ;
416 [label="MonthlyCharges <= 24.25\ngini = 0.444\nsamples = 3\nvalue = [1, 2]"] ;
415 -> 416 ;
417 [label="gini = 0.0\nsamples = 2\nvalue = [0, 2]"] ;
416 -> 417 ;
418 [label="gini = 0.0\nsamples = 1\nvalue = [1, 0]"] ;
416 -> 418 ;
419 [label="gini = 0.0\nsamples = 6\nvalue = [6, 0]"] ;
415 -> 419 ;
420 [label="gini = 0.0\nsamples = 1\nvalue = [0, 1]"] ;
406 -> 420 ;
421 [label="MonthlyCharges <= 50.925\ngini = 0.474\nsamples = 119\nvalue = [73, 46]"] ;
405 -> 421 ;
422 [label="MonthlyCharges <= 45.575\ngini = 0.497\nsamples = 87\nvalue = [47, 40]"] ;
421 -> 422 ;
423 [label="tenure <= 4.5\ngini = 0.456\nsamples = 54\nvalue = [35, 19]"] ;
422 -> 423 ;
424 [label="MonthlyCharges <= 29.775\ngini = 0.153\nsamples = 12\nvalue = [11, 1]"] ;
423 -> 424 ;
425 [label="MonthlyCharges <= 29.4\ngini = 0.444\nsamples = 3\nvalue = [2, 1]"] ;
424 -> 425 ;
426 [label="gini = 0.0\nsamples = 2\nvalue = [2, 0]"] ;
425 -> 426 ;
427 [label="gini = 0.0\nsamples = 1\nvalue = [0, 1]"] ;
425 -> 427 ;
428 [label="gini = 0.0\nsamples = 9\nvalue = [9, 0]"] ;
424 -> 428 ;
429 [label="TotalCharges <= 852.5\ngini = 0.49\nsamples = 42\nvalue = [24, 18]"] ;
423 -> 429 ;
430 [label="gini = 0.0\nsamples = 2\nvalue = [0, 2]"] ;
429 -> 430 ;
431 [label="TotalCharges <= 1679.0\ngini = 0.48\nsamples = 40\nvalue = [24, 16]"] ;
429 -> 431 ;
432 [label="gini = 0.0\nsamples = 6\nvalue = [6, 0]"] ;
431 -> 432 ;
433 [label="MonthlyCharges <= 43.575\ngini = 0.498\nsamples = 34\nvalue = [18, 16]"] ;
431 -> 433 ;
434 [label="TotalCharges <= 1770.5\ngini = 0.493\nsamples = 25\nvalue = [11.0, 14.0]"] ;
433 -> 434 ;
435 [label="gini = 0.0\nsamples = 3\nvalue = [0, 3]"] ;
434 -> 435 ;
436 [label="MonthlyCharges <= 29.375\ngini = 0.5\nsamples = 22\nvalue = [11, 11]"] ;
434 -> 436 ;
437 [label="tenure <= 11.0\ngini = 0.32\nsamples = 5\nvalue = [4, 1]"] ;
436 -> 437 ;
438 [label="gini = 0.0\nsamples = 4\nvalue = [4, 0]"] ;
437 -> 438 ;
439 [label="gini = 0.0\nsamples = 1\nvalue = [0, 1]"] ;
437 -> 439 ;
440 [label="TotalCharges <= 2580.0\ngini = 0.484\nsamples = 17\nvalue = [7, 10]"] ;
436 -> 440 ;
441 [label="tenure <= 7.5\ngini = 0.444\nsamples = 15\nvalue = [5, 10]"] ;
440 -> 441 ;
442 [label="tenure <= 5.5\ngini = 0.494\nsamples = 9\nvalue = [5, 4]"] ;
441 -> 442 ;
443 [label="gini = 0.0\nsamples = 2\nvalue = [0, 2]"] ;
442 -> 443 ;
444 [label="TotalCharges <= 2351.0\ngini = 0.408\nsamples = 7\nvalue = [5, 2]"] ;
442 -> 444 ;
445 [label="gini = 0.0\nsamples = 4\nvalue = [4, 0]"] ;
444 -> 445 ;
446 [label="TotalCharges <= 2421.0\ngini = 0.444\nsamples = 3\nvalue = [1, 2]"] ;
444 -> 446 ;
447 [label="gini = 0.0\nsamples = 1\nvalue = [0, 1]"] ;
446 -> 447 ;
448 [label="MonthlyCharges <= 39.325\ngini = 0.5\nsamples = 2\nvalue = [1, 1]"] ;
446 -> 448 ;
449 [label="gini = 0.0\nsamples = 1\nvalue = [1, 0]"] ;
448 -> 449 ;
450 [label="gini = 0.0\nsamples = 1\nvalue = [0, 1]"] ;
448 -> 450 ;
451 [label="gini = 0.0\nsamples = 6\nvalue = [0, 6]"] ;
441 -> 451 ;
452 [label="gini = 0.0\nsamples = 2\nvalue = [2, 0]"] ;
440 -> 452 ;
453 [label="TotalCharges <= 2375.0\ngini = 0.346\nsamples = 9\nvalue = [7, 2]"] ;
433 -> 453 ;
454 [label="TotalCharges <= 2325.0\ngini = 0.444\nsamples = 6\nvalue = [4, 2]"] ;
453 -> 454 ;
455 [label="tenure <= 5.5\ngini = 0.32\nsamples = 5\nvalue = [4, 1]"] ;
454 -> 455 ;
456 [label="gini = 0.0\nsamples = 2\nvalue = [2, 0]"] ;
455 -> 456 ;
457 [label="MonthlyCharges <= 44.5\ngini = 0.444\nsamples = 3\nvalue = [2, 1]"] ;
455 -> 457 ;
458 [label="gini = 0.0\nsamples = 2\nvalue = [2, 0]"] ;
457 -> 458 ;
459 [label="gini = 0.0\nsamples = 1\nvalue = [0, 1]"] ;
457 -> 459 ;
460 [label="gini = 0.0\nsamples = 1\nvalue = [0, 1]"] ;
454 -> 460 ;
461 [label="gini = 0.0\nsamples = 3\nvalue = [3, 0]"] ;
453 -> 461 ;
462 [label="TotalCharges <= 1588.5\ngini = 0.463\nsamples = 33\nvalue = [12, 21]"] ;
422 -> 462 ;
463 [label="gini = 0.0\nsamples = 7\nvalue = [0, 7]"] ;
462 -> 463 ;
464 [label="TotalCharges <= 1768.5\ngini = 0.497\nsamples = 26\nvalue = [12, 14]"] ;
462 -> 464 ;
465 [label="TotalCharges <= 1696.5\ngini = 0.408\nsamples = 7\nvalue = [5, 2]"] ;
464 -> 465 ;
466 [label="MonthlyCharges <= 48.4\ngini = 0.48\nsamples = 5\nvalue = [3, 2]"] ;
465 -> 466 ;
467 [label="gini = 0.0\nsamples = 2\nvalue = [2, 0]"] ;
466 -> 467 ;
468 [label="MonthlyCharges <= 50.6\ngini = 0.444\nsamples = 3\nvalue = [1, 2]"] ;
466 -> 468 ;
469 [label="gini = 0.0\nsamples = 2\nvalue = [0, 2]"] ;
468 -> 469 ;
470 [label="gini = 0.0\nsamples = 1\nvalue = [1, 0]"] ;
468 -> 470 ;
471 [label="gini = 0.0\nsamples = 2\nvalue = [2, 0]"] ;
465 -> 471 ;
472 [label="TotalCharges <= 1921.5\ngini = 0.465\nsamples = 19\nvalue = [7, 12]"] ;
464 -> 472 ;
473 [label="gini = 0.0\nsamples = 5\nvalue = [0, 5]"] ;
472 -> 473 ;
474 [label="TotalCharges <= 1999.0\ngini = 0.5\nsamples = 14\nvalue = [7, 7]"] ;
472 -> 474 ;
475 [label="gini = 0.0\nsamples = 3\nvalue = [3, 0]"] ;
474 -> 475 ;
476 [label="TotalCharges <= 2363.0\ngini = 0.463\nsamples = 11\nvalue = [4, 7]"] ;
474 -> 476 ;
477 [label="gini = 0.0\nsamples = 5\nvalue = [0, 5]"] ;
476 -> 477 ;
478 [label="MonthlyCharges <= 48.45\ngini = 0.444\nsamples = 6\nvalue = [4, 2]"] ;
476 -> 478 ;
479 [label="gini = 0.0\nsamples = 1\nvalue = [0, 1]"] ;
478 -> 479 ;
480 [label="MonthlyCharges <= 50.425\ngini = 0.32\nsamples = 5\nvalue = [4, 1]"] ;
478 -> 480 ;
481 [label="gini = 0.0\nsamples = 4\nvalue = [4, 0]"] ;
480 -> 481 ;
482 [label="gini = 0.0\nsamples = 1\nvalue = [0, 1]"] ;
480 -> 482 ;
483 [label="MonthlyCharges <= 56.45\ngini = 0.305\nsamples = 32\nvalue = [26, 6]"] ;
421 -> 483 ;
484 [label="TotalCharges <= 2623.5\ngini = 0.117\nsamples = 16\nvalue = [15, 1]"] ;
483 -> 484 ;
485 [label="gini = 0.0\nsamples = 14\nvalue = [14, 0]"] ;
484 -> 485 ;
486 [label="tenure <= 5.5\ngini = 0.5\nsamples = 2\nvalue = [1, 1]"] ;
484 -> 486 ;
487 [label="gini = 0.0\nsamples = 1\nvalue = [0, 1]"] ;
486 -> 487 ;
488 [label="gini = 0.0\nsamples = 1\nvalue = [1, 0]"] ;
486 -> 488 ;
489 [label="MonthlyCharges <= 62.25\ngini = 0.43\nsamples = 16\nvalue = [11, 5]"] ;
483 -> 489 ;
490 [label="MonthlyCharges <= 58.95\ngini = 0.49\nsamples = 7\nvalue = [3, 4]"] ;
489 -> 490 ;
491 [label="TotalCharges <= 1932.5\ngini = 0.444\nsamples = 3\nvalue = [2, 1]"] ;
490 -> 491 ;
492 [label="gini = 0.0\nsamples = 2\nvalue = [2, 0]"] ;
491 -> 492 ;
493 [label="gini = 0.0\nsamples = 1\nvalue = [0, 1]"] ;
491 -> 493 ;
494 [label="MonthlyCharges <= 60.85\ngini = 0.375\nsamples = 4\nvalue = [1, 3]"] ;
490 -> 494 ;
495 [label="gini = 0.0\nsamples = 2\nvalue = [0, 2]"] ;
494 -> 495 ;
496 [label="MonthlyCharges <= 61.375\ngini = 0.5\nsamples = 2\nvalue = [1, 1]"] ;
494 -> 496 ;
497 [label="gini = 0.0\nsamples = 1\nvalue = [1, 0]"] ;
496 -> 497 ;
498 [label="gini = 0.0\nsamples = 1\nvalue = [0, 1]"] ;
496 -> 498 ;
499 [label="TotalCharges <= 106.0\ngini = 0.198\nsamples = 9\nvalue = [8, 1]"] ;
489 -> 499 ;
500 [label="TotalCharges <= 67.5\ngini = 0.444\nsamples = 3\nvalue = [2, 1]"] ;
499 -> 500 ;
501 [label="gini = 0.0\nsamples = 2\nvalue = [2, 0]"] ;
500 -> 501 ;
502 [label="gini = 0.0\nsamples = 1\nvalue = [0, 1]"] ;
500 -> 502 ;
503 [label="gini = 0.0\nsamples = 6\nvalue = [6, 0]"] ;
499 -> 503 ;
504 [label="TotalCharges <= 6408.0\ngini = 0.308\nsamples = 242\nvalue = [196, 46]"] ;
404 -> 504 ;
505 [label="MonthlyCharges <= 48.775\ngini = 0.291\nsamples = 232\nvalue = [191, 41]"] ;
504 -> 505 ;
506 [label="MonthlyCharges <= 48.375\ngini = 0.384\nsamples = 85\nvalue = [63.0, 22.0]"] ;
505 -> 506 ;
507 [label="TotalCharges <= 3387.0\ngini = 0.356\nsamples = 82\nvalue = [63, 19]"] ;
506 -> 507 ;
508 [label="TotalCharges <= 2862.5\ngini = 0.149\nsamples = 37\nvalue = [34, 3]"] ;
507 -> 508 ;
509 [label="TotalCharges <= 2834.0\ngini = 0.375\nsamples = 8\nvalue = [6, 2]"] ;
508 -> 509 ;
510 [label="gini = 0.0\nsamples = 6\nvalue = [6, 0]"] ;
509 -> 510 ;
511 [label="gini = 0.0\nsamples = 2\nvalue = [0, 2]"] ;
509 -> 511 ;
512 [label="tenure <= 12.5\ngini = 0.067\nsamples = 29\nvalue = [28, 1]"] ;
508 -> 512 ;
513 [label="gini = 0.0\nsamples = 20\nvalue = [20, 0]"] ;
512 -> 513 ;
514 [label="MonthlyCharges <= 30.95\ngini = 0.198\nsamples = 9\nvalue = [8, 1]"] ;
512 -> 514 ;
515 [label="gini = 0.0\nsamples = 8\nvalue = [8, 0]"] ;
514 -> 515 ;
516 [label="gini = 0.0\nsamples = 1\nvalue = [0, 1]"] ;
514 -> 516 ;
517 [label="TotalCharges <= 6191.0\ngini = 0.458\nsamples = 45\nvalue = [29.0, 16.0]"] ;
507 -> 517 ;
518 [label="TotalCharges <= 4409.0\ngini = 0.439\nsamples = 43\nvalue = [29.0, 14.0]"] ;
517 -> 518 ;
519 [label="MonthlyCharges <= 41.15\ngini = 0.495\nsamples = 29\nvalue = [16, 13]"] ;
518 -> 519 ;
520 [label="MonthlyCharges <= 27.8\ngini = 0.32\nsamples = 10\nvalue = [8, 2]"] ;
519 -> 520 ;
521 [label="gini = 0.0\nsamples = 1\nvalue = [0, 1]"] ;
520 -> 521 ;
522 [label="tenure <= 12.5\ngini = 0.198\nsamples = 9\nvalue = [8, 1]"] ;
520 -> 522 ;
523 [label="gini = 0.0\nsamples = 5\nvalue = [5, 0]"] ;
522 -> 523 ;
524 [label="TotalCharges <= 3807.5\ngini = 0.375\nsamples = 4\nvalue = [3, 1]"] ;
522 -> 524 ;
525 [label="TotalCharges <= 3685.0\ngini = 0.5\nsamples = 2\nvalue = [1, 1]"] ;
524 -> 525 ;
526 [label="gini = 0.0\nsamples = 1\nvalue = [1, 0]"] ;
525 -> 526 ;
527 [label="gini = 0.0\nsamples = 1\nvalue = [0, 1]"] ;
525 -> 527 ;
528 [label="gini = 0.0\nsamples = 2\nvalue = [2, 0]"] ;
524 -> 528 ;
529 [label="MonthlyCharges <= 45.675\ngini = 0.488\nsamples = 19\nvalue = [8, 11]"] ;
519 -> 529 ;
530 [label="TotalCharges <= 3656.0\ngini = 0.43\nsamples = 16\nvalue = [5, 11]"] ;
529 -> 530 ;
531 [label="TotalCharges <= 3455.5\ngini = 0.5\nsamples = 6\nvalue = [3, 3]"] ;
530 -> 531 ;
532 [label="gini = 0.0\nsamples = 2\nvalue = [0, 2]"] ;
531 -> 532 ;
533 [label="MonthlyCharges <= 45.325\ngini = 0.375\nsamples = 4\nvalue = [3, 1]"] ;
531 -> 533 ;
534 [label="gini = 0.0\nsamples = 2\nvalue = [2, 0]"] ;
533 -> 534 ;
535 [label="MonthlyCharges <= 45.425\ngini = 0.5\nsamples = 2\nvalue = [1, 1]"] ;
533 -> 535 ;
536 [label="gini = 0.0\nsamples = 1\nvalue = [0, 1]"] ;
535 -> 536 ;
537 [label="gini = 0.0\nsamples = 1\nvalue = [1, 0]"] ;
535 -> 537 ;
538 [label="MonthlyCharges <= 44.6\ngini = 0.32\nsamples = 10\nvalue = [2, 8]"] ;
530 -> 538 ;
539 [label="gini = 0.0\nsamples = 4\nvalue = [0, 4]"] ;
538 -> 539 ;
540 [label="TotalCharges <= 3857.5\ngini = 0.444\nsamples = 6\nvalue = [2, 4]"] ;
538 -> 540 ;
541 [label="gini = 0.0\nsamples = 3\nvalue = [0, 3]"] ;
540 -> 541 ;
542 [label="MonthlyCharges <= 45.2\ngini = 0.444\nsamples = 3\nvalue = [2, 1]"] ;
540 -> 542 ;
543 [label="gini = 0.0\nsamples = 2\nvalue = [2, 0]"] ;
542 -> 543 ;
544 [label="gini = 0.0\nsamples = 1\nvalue = [0, 1]"] ;
542 -> 544 ;
545 [label="gini = 0.0\nsamples = 3\nvalue = [3, 0]"] ;
529 -> 545 ;
546 [label="tenure <= 15.5\ngini = 0.133\nsamples = 14\nvalue = [13, 1]"] ;
518 -> 546 ;
547 [label="gini = 0.0\nsamples = 11\nvalue = [11, 0]"] ;
546 -> 547 ;
548 [label="MonthlyCharges <= 38.95\ngini = 0.444\nsamples = 3\nvalue = [2, 1]"] ;
546 -> 548 ;
549 [label="gini = 0.0\nsamples = 2\nvalue = [2, 0]"] ;
548 -> 549 ;
550 [label="gini = 0.0\nsamples = 1\nvalue = [0, 1]"] ;
548 -> 550 ;
551 [label="gini = 0.0\nsamples = 2\nvalue = [0, 2]"] ;
517 -> 551 ;
552 [label="gini = 0.0\nsamples = 3\nvalue = [0, 3]"] ;
506 -> 552 ;
553 [label="TotalCharges <= 5227.0\ngini = 0.225\nsamples = 147\nvalue = [128, 19]"] ;
505 -> 553 ;
554 [label="MonthlyCharges <= 58.675\ngini = 0.159\nsamples = 92\nvalue = [84, 8]"] ;
553 -> 554 ;
555 [label="MonthlyCharges <= 58.35\ngini = 0.209\nsamples = 59\nvalue = [52, 7]"] ;
554 -> 555 ;
556 [label="MonthlyCharges <= 55.175\ngini = 0.185\nsamples = 58\nvalue = [52, 6]"] ;
555 -> 556 ;
557 [label="MonthlyCharges <= 51.075\ngini = 0.122\nsamples = 46\nvalue = [43, 3]"] ;
556 -> 557 ;
558 [label="MonthlyCharges <= 51.025\ngini = 0.219\nsamples = 24\nvalue = [21, 3]"] ;
557 -> 558 ;
559 [label="MonthlyCharges <= 49.7\ngini = 0.159\nsamples = 23\nvalue = [21, 2]"] ;
558 -> 559 ;
560 [label="gini = 0.0\nsamples = 10\nvalue = [10, 0]"] ;
559 -> 560 ;
561 [label="MonthlyCharges <= 50.275\ngini = 0.26\nsamples = 13\nvalue = [11, 2]"] ;
559 -> 561 ;
562 [label="MonthlyCharges <= 50.175\ngini = 0.48\nsamples = 5\nvalue = [3, 2]"] ;
561 -> 562 ;
563 [label="tenure <= 8.5\ngini = 0.375\nsamples = 4\nvalue = [3, 1]"] ;
562 -> 563 ;
564 [label="gini = 0.0\nsamples = 1\nvalue = [0, 1]"] ;
563 -> 564 ;
565 [label="gini = 0.0\nsamples = 3\nvalue = [3, 0]"] ;
563 -> 565 ;
566 [label="gini = 0.0\nsamples = 1\nvalue = [0, 1]"] ;
562 -> 566 ;
567 [label="gini = 0.0\nsamples = 8\nvalue = [8, 0]"] ;
561 -> 567 ;
568 [label="gini = 0.0\nsamples = 1\nvalue = [0, 1]"] ;
558 -> 568 ;
569 [label="gini = 0.0\nsamples = 22\nvalue = [22, 0]"] ;
557 -> 569 ;
570 [label="MonthlyCharges <= 55.45\ngini = 0.375\nsamples = 12\nvalue = [9, 3]"] ;
556 -> 570 ;
571 [label="MonthlyCharges <= 55.25\ngini = 0.444\nsamples = 3\nvalue = [1, 2]"] ;
570 -> 571 ;
572 [label="gini = 0.0\nsamples = 1\nvalue = [0, 1]"] ;
571 -> 572 ;
573 [label="TotalCharges <= 4023.5\ngini = 0.5\nsamples = 2\nvalue = [1, 1]"] ;
571 -> 573 ;
574 [label="gini = 0.0\nsamples = 1\nvalue = [0, 1]"] ;
573 -> 574 ;
575 [label="gini = 0.0\nsamples = 1\nvalue = [1, 0]"] ;
573 -> 575 ;
576 [label="TotalCharges <= 3288.0\ngini = 0.198\nsamples = 9\nvalue = [8, 1]"] ;
570 -> 576 ;
577 [label="TotalCharges <= 3029.5\ngini = 0.5\nsamples = 2\nvalue = [1, 1]"] ;
576 -> 577 ;
578 [label="gini = 0.0\nsamples = 1\nvalue = [1, 0]"] ;
577 -> 578 ;
579 [label="gini = 0.0\nsamples = 1\nvalue = [0, 1]"] ;
577 -> 579 ;
580 [label="gini = 0.0\nsamples = 7\nvalue = [7, 0]"] ;
576 -> 580 ;
581 [label="gini = 0.0\nsamples = 1\nvalue = [0, 1]"] ;
555 -> 581 ;
582 [label="TotalCharges <= 5035.0\ngini = 0.059\nsamples = 33\nvalue = [32, 1]"] ;
554 -> 582 ;
583 [label="gini = 0.0\nsamples = 29\nvalue = [29, 0]"] ;
582 -> 583 ;
584 [label="TotalCharges <= 5063.5\ngini = 0.375\nsamples = 4\nvalue = [3, 1]"] ;
582 -> 584 ;
585 [label="gini = 0.0\nsamples = 1\nvalue = [0, 1]"] ;
584 -> 585 ;
586 [label="gini = 0.0\nsamples = 3\nvalue = [3, 0]"] ;
584 -> 586 ;
587 [label="TotalCharges <= 5249.0\ngini = 0.32\nsamples = 55\nvalue = [44, 11]"] ;
553 -> 587 ;
588 [label="gini = 0.0\nsamples = 1\nvalue = [0, 1]"] ;
587 -> 588 ;
589 [label="MonthlyCharges <= 54.625\ngini = 0.302\nsamples = 54\nvalue = [44, 10]"] ;
587 -> 589 ;
590 [label="MonthlyCharges <= 53.55\ngini = 0.42\nsamples = 20\nvalue = [14, 6]"] ;
589 -> 590 ;
591 [label="TotalCharges <= 5848.5\ngini = 0.32\nsamples = 15\nvalue = [12, 3]"] ;
590 -> 591 ;
592 [label="TotalCharges <= 5398.5\ngini = 0.153\nsamples = 12\nvalue = [11, 1]"] ;
591 -> 592 ;
593 [label="TotalCharges <= 5345.0\ngini = 0.375\nsamples = 4\nvalue = [3, 1]"] ;
592 -> 593 ;
594 [label="gini = 0.0\nsamples = 3\nvalue = [3, 0]"] ;
593 -> 594 ;
595 [label="gini = 0.0\nsamples = 1\nvalue = [0, 1]"] ;
593 -> 595 ;
596 [label="gini = 0.0\nsamples = 8\nvalue = [8, 0]"] ;
592 -> 596 ;
597 [label="MonthlyCharges <= 49.7\ngini = 0.444\nsamples = 3\nvalue = [1, 2]"] ;
591 -> 597 ;
598 [label="gini = 0.0\nsamples = 1\nvalue = [1, 0]"] ;
597 -> 598 ;
599 [label="gini = 0.0\nsamples = 2\nvalue = [0, 2]"] ;
597 -> 599 ;
600 [label="MonthlyCharges <= 54.0\ngini = 0.48\nsamples = 5\nvalue = [2, 3]"] ;
590 -> 600 ;
601 [label="gini = 0.0\nsamples = 2\nvalue = [0, 2]"] ;
600 -> 601 ;
602 [label="MonthlyCharges <= 54.3\ngini = 0.444\nsamples = 3\nvalue = [2, 1]"] ;
600 -> 602 ;
603 [label="gini = 0.0\nsamples = 2\nvalue = [2, 0]"] ;
602 -> 603 ;
604 [label="gini = 0.0\nsamples = 1\nvalue = [0, 1]"] ;
602 -> 604 ;
605 [label="TotalCharges <= 5733.0\ngini = 0.208\nsamples = 34\nvalue = [30, 4]"] ;
589 -> 605 ;
606 [label="TotalCharges <= 5728.5\ngini = 0.355\nsamples = 13\nvalue = [10, 3]"] ;
605 -> 606 ;
607 [label="tenure <= 11.5\ngini = 0.278\nsamples = 12\nvalue = [10, 2]"] ;
606 -> 607 ;
608 [label="gini = 0.0\nsamples = 8\nvalue = [8, 0]"] ;
607 -> 608 ;
609 [label="MonthlyCharges <= 59.075\ngini = 0.5\nsamples = 4\nvalue = [2, 2]"] ;
607 -> 609 ;
610 [label="gini = 0.0\nsamples = 2\nvalue = [2, 0]"] ;
609 -> 610 ;
611 [label="gini = 0.0\nsamples = 2\nvalue = [0, 2]"] ;
609 -> 611 ;
612 [label="gini = 0.0\nsamples = 1\nvalue = [0, 1]"] ;
606 -> 612 ;
613 [label="TotalCharges <= 6294.0\ngini = 0.091\nsamples = 21\nvalue = [20, 1]"] ;
605 -> 613 ;
614 [label="gini = 0.0\nsamples = 17\nvalue = [17, 0]"] ;
613 -> 614 ;
615 [label="TotalCharges <= 6320.5\ngini = 0.375\nsamples = 4\nvalue = [3, 1]"] ;
613 -> 615 ;
616 [label="gini = 0.0\nsamples = 1\nvalue = [0, 1]"] ;
615 -> 616 ;
617 [label="gini = 0.0\nsamples = 3\nvalue = [3, 0]"] ;
615 -> 617 ;
618 [label="TotalCharges <= 6437.5\ngini = 0.5\nsamples = 10\nvalue = [5, 5]"] ;
504 -> 618 ;
619 [label="gini = 0.0\nsamples = 3\nvalue = [0, 3]"] ;
618 -> 619 ;
620 [label="TotalCharges <= 6515.5\ngini = 0.408\nsamples = 7\nvalue = [5, 2]"] ;
618 -> 620 ;
621 [label="MonthlyCharges <= 24.7\ngini = 0.278\nsamples = 6\nvalue = [5, 1]"] ;
620 -> 621 ;
622 [label="TotalCharges <= 6474.0\ngini = 0.5\nsamples = 2\nvalue = [1, 1]"] ;
621 -> 622 ;
623 [label="gini = 0.0\nsamples = 1\nvalue = [0, 1]"] ;
622 -> 623 ;
624 [label="gini = 0.0\nsamples = 1\nvalue = [1, 0]"] ;
622 -> 624 ;
625 [label="gini = 0.0\nsamples = 4\nvalue = [4, 0]"] ;
621 -> 625 ;
626 [label="gini = 0.0\nsamples = 1\nvalue = [0, 1]"] ;
620 -> 626 ;
627 [label="tenure <= 1.5\ngini = 0.456\nsamples = 911\nvalue = [320, 591]"] ;
1 -> 627 ;
628 [label="MonthlyCharges <= 69.875\ngini = 0.267\nsamples = 183\nvalue = [29, 154]"] ;
627 -> 628 ;
629 [label="gini = 0.0\nsamples = 28\nvalue = [0, 28]"] ;
628 -> 629 ;
630 [label="TotalCharges <= 5774.0\ngini = 0.304\nsamples = 155\nvalue = [29, 126]"] ;
628 -> 630 ;
631 [label="TotalCharges <= 5771.0\ngini = 0.396\nsamples = 81\nvalue = [22, 59]"] ;
630 -> 631 ;
632 [label="tenure <= 0.5\ngini = 0.378\nsamples = 79\nvalue = [20, 59]"] ;
631 -> 632 ;
633 [label="gini = 0.0\nsamples = 1\nvalue = [1, 0]"] ;
632 -> 633 ;
634 [label="MonthlyCharges <= 74.375\ngini = 0.369\nsamples = 78\nvalue = [19, 59]"] ;
632 -> 634 ;
635 [label="TotalCharges <= 5564.5\ngini = 0.419\nsamples = 57\nvalue = [17, 40]"] ;
634 -> 635 ;
636 [label="MonthlyCharges <= 70.725\ngini = 0.369\nsamples = 41\nvalue = [10, 31]"] ;
635 -> 636 ;
637 [label="MonthlyCharges <= 70.675\ngini = 0.415\nsamples = 34\nvalue = [10, 24]"] ;
636 -> 637 ;
638 [label="TotalCharges <= 5512.5\ngini = 0.397\nsamples = 33\nvalue = [9, 24]"] ;
637 -> 638 ;
639 [label="MonthlyCharges <= 70.475\ngini = 0.375\nsamples = 28\nvalue = [7, 21]"] ;
638 -> 639 ;
640 [label="TotalCharges <= 5507.5\ngini = 0.393\nsamples = 26\nvalue = [7, 19]"] ;
639 -> 640 ;
641 [label="TotalCharges <= 5505.5\ngini = 0.363\nsamples = 21\nvalue = [5, 16]"] ;
640 -> 641 ;
642 [label="TotalCharges <= 5504.5\ngini = 0.415\nsamples = 17\nvalue = [5, 12]"] ;
641 -> 642 ;
643 [label="TotalCharges <= 5503.5\ngini = 0.375\nsamples = 16\nvalue = [4, 12]"] ;
642 -> 643 ;
644 [label="MonthlyCharges <= 70.025\ngini = 0.426\nsamples = 13\nvalue = [4, 9]"] ;
643 -> 644 ;
645 [label="MonthlyCharges <= 69.975\ngini = 0.346\nsamples = 9\nvalue = [2, 7]"] ;
644 -> 645 ;
646 [label="TotalCharges <= 5454.5\ngini = 0.375\nsamples = 8\nvalue = [2, 6]"] ;
645 -> 646 ;
647 [label="gini = 0.375\nsamples = 4\nvalue = [1, 3]"] ;
646 -> 647 ;
648 [label="gini = 0.375\nsamples = 4\nvalue = [1, 3]"] ;
646 -> 648 ;
649 [label="gini = 0.0\nsamples = 1\nvalue = [0, 1]"] ;
645 -> 649 ;
650 [label="MonthlyCharges <= 70.075\ngini = 0.5\nsamples = 4\nvalue = [2, 2]"] ;
644 -> 650 ;
651 [label="gini = 0.5\nsamples = 2\nvalue = [1, 1]"] ;
650 -> 651 ;
652 [label="gini = 0.5\nsamples = 2\nvalue = [1, 1]"] ;
650 -> 652 ;
653 [label="gini = 0.0\nsamples = 3\nvalue = [0, 3]"] ;
643 -> 653 ;
654 [label="gini = 0.0\nsamples = 1\nvalue = [1, 0]"] ;
642 -> 654 ;
655 [label="gini = 0.0\nsamples = 4\nvalue = [0, 4]"] ;
641 -> 655 ;
656 [label="MonthlyCharges <= 70.375\ngini = 0.48\nsamples = 5\nvalue = [2, 3]"] ;
640 -> 656 ;
657 [label="gini = 0.0\nsamples = 1\nvalue = [1, 0]"] ;
656 -> 657 ;
658 [label="TotalCharges <= 5509.5\ngini = 0.375\nsamples = 4\nvalue = [1, 3]"] ;
656 -> 658 ;
659 [label="gini = 0.0\nsamples = 1\nvalue = [0, 1]"] ;
658 -> 659 ;
660 [label="gini = 0.444\nsamples = 3\nvalue = [1, 2]"] ;
658 -> 660 ;
661 [label="gini = 0.0\nsamples = 2\nvalue = [0, 2]"] ;
639 -> 661 ;
662 [label="MonthlyCharges <= 70.625\ngini = 0.48\nsamples = 5\nvalue = [2, 3]"] ;
638 -> 662 ;
663 [label="gini = 0.5\nsamples = 4\nvalue = [2, 2]"] ;
662 -> 663 ;
664 [label="gini = 0.0\nsamples = 1\nvalue = [0, 1]"] ;
662 -> 664 ;
665 [label="gini = 0.0\nsamples = 1\nvalue = [1, 0]"] ;
637 -> 665 ;
666 [label="gini = 0.0\nsamples = 7\nvalue = [0, 7]"] ;
636 -> 666 ;
667 [label="TotalCharges <= 5644.0\ngini = 0.492\nsamples = 16\nvalue = [7, 9]"] ;
635 -> 667 ;
668 [label="TotalCharges <= 5567.0\ngini = 0.375\nsamples = 4\nvalue = [3, 1]"] ;
667 -> 668 ;
669 [label="MonthlyCharges <= 71.125\ngini = 0.5\nsamples = 2\nvalue = [1, 1]"] ;
668 -> 669 ;
670 [label="gini = 0.0\nsamples = 1\nvalue = [1, 0]"] ;
669 -> 670 ;
671 [label="gini = 0.0\nsamples = 1\nvalue = [0, 1]"] ;
669 -> 671 ;
672 [label="gini = 0.0\nsamples = 2\nvalue = [2, 0]"] ;
668 -> 672 ;
673 [label="TotalCharges <= 5690.5\ngini = 0.444\nsamples = 12\nvalue = [4, 8]"] ;
667 -> 673 ;
674 [label="gini = 0.0\nsamples = 3\nvalue = [0, 3]"] ;
673 -> 674 ;
675 [label="MonthlyCharges <= 74.15\ngini = 0.494\nsamples = 9\nvalue = [4, 5]"] ;
673 -> 675 ;
676 [label="gini = 0.0\nsamples = 2\nvalue = [2, 0]"] ;
675 -> 676 ;
677 [label="MonthlyCharges <= 74.275\ngini = 0.408\nsamples = 7\nvalue = [2, 5]"] ;
675 -> 677 ;
678 [label="gini = 0.0\nsamples = 2\nvalue = [0, 2]"] ;
677 -> 678 ;
679 [label="TotalCharges <= 5717.5\ngini = 0.48\nsamples = 5\nvalue = [2, 3]"] ;
677 -> 679 ;
680 [label="gini = 0.5\nsamples = 2\nvalue = [1, 1]"] ;
679 -> 680 ;
681 [label="gini = 0.444\nsamples = 3\nvalue = [1, 2]"] ;
679 -> 681 ;
682 [label="TotalCharges <= 5746.5\ngini = 0.172\nsamples = 21\nvalue = [2, 19]"] ;
634 -> 682 ;
683 [label="gini = 0.0\nsamples = 12\nvalue = [0, 12]"] ;
682 -> 683 ;
684 [label="TotalCharges <= 5768.5\ngini = 0.346\nsamples = 9\nvalue = [2, 7]"] ;
682 -> 684 ;
685 [label="gini = 0.5\nsamples = 2\nvalue = [1, 1]"] ;
684 -> 685 ;
686 [label="MonthlyCharges <= 75.325\ngini = 0.245\nsamples = 7\nvalue = [1, 6]"] ;
684 -> 686 ;
687 [label="gini = 0.0\nsamples = 4\nvalue = [0, 4]"] ;
686 -> 687 ;
688 [label="gini = 0.444\nsamples = 3\nvalue = [1, 2]"] ;
686 -> 688 ;
689 [label="gini = 0.0\nsamples = 2\nvalue = [2, 0]"] ;
631 -> 689 ;
690 [label="MonthlyCharges <= 95.65\ngini = 0.171\nsamples = 74\nvalue = [7, 67]"] ;
630 -> 690 ;
691 [label="TotalCharges <= 6020.5\ngini = 0.153\nsamples = 72\nvalue = [6, 66]"] ;
690 -> 691 ;
692 [label="MonthlyCharges <= 79.125\ngini = 0.062\nsamples = 31\nvalue = [1, 30]"] ;
691 -> 692 ;
693 [label="gini = 0.0\nsamples = 15\nvalue = [0, 15]"] ;
692 -> 693 ;
694 [label="TotalCharges <= 5965.5\ngini = 0.117\nsamples = 16\nvalue = [1, 15]"] ;
692 -> 694 ;
695 [label="gini = 0.5\nsamples = 2\nvalue = [1, 1]"] ;
694 -> 695 ;
696 [label="gini = 0.0\nsamples = 14\nvalue = [0, 14]"] ;
694 -> 696 ;
697 [label="MonthlyCharges <= 81.075\ngini = 0.214\nsamples = 41\nvalue = [5, 36]"] ;
691 -> 697 ;
698 [label="MonthlyCharges <= 80.95\ngini = 0.48\nsamples = 5\nvalue = [2, 3]"] ;
697 -> 698 ;
699 [label="MonthlyCharges <= 80.675\ngini = 0.375\nsamples = 4\nvalue = [1, 3]"] ;
698 -> 699 ;
700 [label="gini = 0.5\nsamples = 2\nvalue = [1, 1]"] ;
699 -> 700 ;
701 [label="gini = 0.0\nsamples = 2\nvalue = [0, 2]"] ;
699 -> 701 ;
702 [label="gini = 0.0\nsamples = 1\nvalue = [1, 0]"] ;
698 -> 702 ;
703 [label="MonthlyCharges <= 90.325\ngini = 0.153\nsamples = 36\nvalue = [3, 33]"] ;
697 -> 703 ;
704 [label="MonthlyCharges <= 90.0\ngini = 0.219\nsamples = 24\nvalue = [3, 21]"] ;
703 -> 704 ;
705 [label="TotalCharges <= 6297.5\ngini = 0.159\nsamples = 23\nvalue = [2, 21]"] ;
704 -> 705 ;
706 [label="MonthlyCharges <= 84.625\ngini = 0.095\nsamples = 20\nvalue = [1, 19]"] ;
705 -> 706 ;
707 [label="MonthlyCharges <= 84.55\ngini = 0.245\nsamples = 7\nvalue = [1, 6]"] ;
706 -> 707 ;
708 [label="gini = 0.0\nsamples = 5\nvalue = [0, 5]"] ;
707 -> 708 ;
709 [label="gini = 0.5\nsamples = 2\nvalue = [1, 1]"] ;
707 -> 709 ;
710 [label="gini = 0.0\nsamples = 13\nvalue = [0, 13]"] ;
706 -> 710 ;
711 [label="MonthlyCharges <= 89.275\ngini = 0.444\nsamples = 3\nvalue = [1, 2]"] ;
705 -> 711 ;
712 [label="gini = 0.0\nsamples = 1\nvalue = [1, 0]"] ;
711 -> 712 ;
713 [label="gini = 0.0\nsamples = 2\nvalue = [0, 2]"] ;
711 -> 713 ;
714 [label="gini = 0.0\nsamples = 1\nvalue = [1, 0]"] ;
704 -> 714 ;
715 [label="gini = 0.0\nsamples = 12\nvalue = [0, 12]"] ;
703 -> 715 ;
716 [label="MonthlyCharges <= 97.8\ngini = 0.5\nsamples = 2\nvalue = [1, 1]"] ;
690 -> 716 ;
717 [label="gini = 0.0\nsamples = 1\nvalue = [1, 0]"] ;
716 -> 717 ;
718 [label="gini = 0.0\nsamples = 1\nvalue = [0, 1]"] ;
716 -> 718 ;
719 [label="MonthlyCharges <= 83.275\ngini = 0.48\nsamples = 728\nvalue = [291, 437]"] ;
627 -> 719 ;
720 [label="tenure <= 5.5\ngini = 0.499\nsamples = 376\nvalue = [180, 196]"] ;
719 -> 720 ;
721 [label="MonthlyCharges <= 74.975\ngini = 0.47\nsamples = 167\nvalue = [63.0, 104.0]"] ;
720 -> 721 ;
722 [label="MonthlyCharges <= 74.425\ngini = 0.496\nsamples = 81\nvalue = [37, 44]"] ;
721 -> 722 ;
723 [label="MonthlyCharges <= 73.875\ngini = 0.481\nsamples = 67\nvalue = [27, 40]"] ;
722 -> 723 ;
724 [label="MonthlyCharges <= 71.0\ngini = 0.496\nsamples = 59\nvalue = [27, 32]"] ;
723 -> 724 ;
725 [label="MonthlyCharges <= 69.125\ngini = 0.482\nsamples = 47\nvalue = [19, 28]"] ;
724 -> 725 ;
726 [label="gini = 0.0\nsamples = 2\nvalue = [0, 2]"] ;
725 -> 726 ;
727 [label="MonthlyCharges <= 69.45\ngini = 0.488\nsamples = 45\nvalue = [19.0, 26.0]"] ;
725 -> 727 ;
728 [label="tenure <= 3.5\ngini = 0.375\nsamples = 4\nvalue = [3, 1]"] ;
727 -> 728 ;
729 [label="MonthlyCharges <= 69.325\ngini = 0.5\nsamples = 2\nvalue = [1, 1]"] ;
728 -> 729 ;
730 [label="gini = 0.0\nsamples = 1\nvalue = [1, 0]"] ;
729 -> 730 ;
731 [label="gini = 0.0\nsamples = 1\nvalue = [0, 1]"] ;
729 -> 731 ;
732 [label="gini = 0.0\nsamples = 2\nvalue = [2, 0]"] ;
728 -> 732 ;
733 [label="TotalCharges <= 548.0\ngini = 0.476\nsamples = 41\nvalue = [16, 25]"] ;
727 -> 733 ;
734 [label="TotalCharges <= 327.5\ngini = 0.375\nsamples = 4\nvalue = [3, 1]"] ;
733 -> 734 ;
735 [label="gini = 0.0\nsamples = 1\nvalue = [0, 1]"] ;
734 -> 735 ;
736 [label="gini = 0.0\nsamples = 3\nvalue = [3, 0]"] ;
734 -> 736 ;
737 [label="TotalCharges <= 2829.0\ngini = 0.456\nsamples = 37\nvalue = [13, 24]"] ;
733 -> 737 ;
738 [label="TotalCharges <= 2485.0\ngini = 0.472\nsamples = 34\nvalue = [13, 21]"] ;
737 -> 738 ;
739 [label="MonthlyCharges <= 70.325\ngini = 0.444\nsamples = 30\nvalue = [10, 20]"] ;
738 -> 739 ;
740 [label="TotalCharges <= 1839.5\ngini = 0.49\nsamples = 21\nvalue = [9, 12]"] ;
739 -> 740 ;
741 [label="MonthlyCharges <= 70.075\ngini = 0.498\nsamples = 15\nvalue = [8, 7]"] ;
740 -> 741 ;
742 [label="TotalCharges <= 841.5\ngini = 0.48\nsamples = 10\nvalue = [4, 6]"] ;
741 -> 742 ;
743 [label="MonthlyCharges <= 69.675\ngini = 0.32\nsamples = 5\nvalue = [1, 4]"] ;
742 -> 743 ;
744 [label="gini = 0.0\nsamples = 2\nvalue = [0, 2]"] ;
743 -> 744 ;
745 [label="MonthlyCharges <= 69.725\ngini = 0.444\nsamples = 3\nvalue = [1, 2]"] ;
743 -> 745 ;
746 [label="gini = 0.0\nsamples = 1\nvalue = [1, 0]"] ;
745 -> 746 ;
747 [label="gini = 0.0\nsamples = 2\nvalue = [0, 2]"] ;
745 -> 747 ;
748 [label="MonthlyCharges <= 69.975\ngini = 0.48\nsamples = 5\nvalue = [3, 2]"] ;
742 -> 748 ;
749 [label="TotalCharges <= 1758.0\ngini = 0.375\nsamples = 4\nvalue = [3, 1]"] ;
748 -> 749 ;
750 [label="gini = 0.0\nsamples = 2\nvalue = [2, 0]"] ;
749 -> 750 ;
751 [label="MonthlyCharges <= 69.8\ngini = 0.5\nsamples = 2\nvalue = [1, 1]"] ;
749 -> 751 ;
752 [label="gini = 0.0\nsamples = 1\nvalue = [0, 1]"] ;
751 -> 752 ;
753 [label="gini = 0.0\nsamples = 1\nvalue = [1, 0]"] ;
751 -> 753 ;
754 [label="gini = 0.0\nsamples = 1\nvalue = [0, 1]"] ;
748 -> 754 ;
755 [label="TotalCharges <= 1625.5\ngini = 0.32\nsamples = 5\nvalue = [4, 1]"] ;
741 -> 755 ;
756 [label="gini = 0.0\nsamples = 3\nvalue = [3, 0]"] ;
755 -> 756 ;
757 [label="TotalCharges <= 1766.5\ngini = 0.5\nsamples = 2\nvalue = [1, 1]"] ;
755 -> 757 ;
758 [label="gini = 0.0\nsamples = 1\nvalue = [0, 1]"] ;
757 -> 758 ;
759 [label="gini = 0.0\nsamples = 1\nvalue = [1, 0]"] ;
757 -> 759 ;
760 [label="TotalCharges <= 2378.5\ngini = 0.278\nsamples = 6\nvalue = [1, 5]"] ;
740 -> 760 ;
761 [label="gini = 0.0\nsamples = 5\nvalue = [0, 5]"] ;
760 -> 761 ;
762 [label="gini = 0.0\nsamples = 1\nvalue = [1, 0]"] ;
760 -> 762 ;
763 [label="TotalCharges <= 1779.5\ngini = 0.198\nsamples = 9\nvalue = [1, 8]"] ;
739 -> 763 ;
764 [label="gini = 0.0\nsamples = 6\nvalue = [0, 6]"] ;
763 -> 764 ;
765 [label="tenure <= 3.5\ngini = 0.444\nsamples = 3\nvalue = [1, 2]"] ;
763 -> 765 ;
766 [label="gini = 0.0\nsamples = 1\nvalue = [1, 0]"] ;
765 -> 766 ;
767 [label="gini = 0.0\nsamples = 2\nvalue = [0, 2]"] ;
765 -> 767 ;
768 [label="MonthlyCharges <= 69.825\ngini = 0.375\nsamples = 4\nvalue = [3, 1]"] ;
738 -> 768 ;
769 [label="gini = 0.0\nsamples = 1\nvalue = [0, 1]"] ;
768 -> 769 ;
770 [label="gini = 0.0\nsamples = 3\nvalue = [3, 0]"] ;
768 -> 770 ;
771 [label="gini = 0.0\nsamples = 3\nvalue = [0, 3]"] ;
737 -> 771 ;
772 [label="MonthlyCharges <= 71.925\ngini = 0.444\nsamples = 12\nvalue = [8, 4]"] ;
724 -> 772 ;
773 [label="gini = 0.0\nsamples = 4\nvalue = [4, 0]"] ;
772 -> 773 ;
774 [label="TotalCharges <= 903.5\ngini = 0.5\nsamples = 8\nvalue = [4, 4]"] ;
772 -> 774 ;
775 [label="gini = 0.0\nsamples = 2\nvalue = [0, 2]"] ;
774 -> 775 ;
776 [label="tenure <= 3.5\ngini = 0.444\nsamples = 6\nvalue = [4, 2]"] ;
774 -> 776 ;
777 [label="gini = 0.0\nsamples = 3\nvalue = [3, 0]"] ;
776 -> 777 ;
778 [label="TotalCharges <= 2702.5\ngini = 0.444\nsamples = 3\nvalue = [1, 2]"] ;
776 -> 778 ;
779 [label="gini = 0.0\nsamples = 1\nvalue = [0, 1]"] ;
778 -> 779 ;
780 [label="TotalCharges <= 2791.0\ngini = 0.5\nsamples = 2\nvalue = [1, 1]"] ;
778 -> 780 ;
781 [label="gini = 0.0\nsamples = 1\nvalue = [1, 0]"] ;
780 -> 781 ;
782 [label="gini = 0.0\nsamples = 1\nvalue = [0, 1]"] ;
780 -> 782 ;
783 [label="gini = 0.0\nsamples = 8\nvalue = [0, 8]"] ;
723 -> 783 ;
784 [label="TotalCharges <= 2316.0\ngini = 0.408\nsamples = 14\nvalue = [10, 4]"] ;
722 -> 784 ;
785 [label="TotalCharges <= 1886.0\ngini = 0.18\nsamples = 10\nvalue = [9, 1]"] ;
784 -> 785 ;
786 [label="gini = 0.0\nsamples = 6\nvalue = [6, 0]"] ;
785 -> 786 ;
787 [label="TotalCharges <= 1947.0\ngini = 0.375\nsamples = 4\nvalue = [3, 1]"] ;
785 -> 787 ;
788 [label="gini = 0.0\nsamples = 1\nvalue = [0, 1]"] ;
787 -> 788 ;
789 [label="gini = 0.0\nsamples = 3\nvalue = [3, 0]"] ;
787 -> 789 ;
790 [label="TotalCharges <= 3036.5\ngini = 0.375\nsamples = 4\nvalue = [1, 3]"] ;
784 -> 790 ;
791 [label="gini = 0.0\nsamples = 3\nvalue = [0, 3]"] ;
790 -> 791 ;
792 [label="gini = 0.0\nsamples = 1\nvalue = [1, 0]"] ;
790 -> 792 ;
793 [label="MonthlyCharges <= 79.925\ngini = 0.422\nsamples = 86\nvalue = [26, 60]"] ;
721 -> 793 ;
794 [label="TotalCharges <= 932.0\ngini = 0.278\nsamples = 48\nvalue = [8, 40]"] ;
793 -> 794 ;
795 [label="MonthlyCharges <= 79.225\ngini = 0.444\nsamples = 3\nvalue = [2, 1]"] ;
794 -> 795 ;
796 [label="gini = 0.0\nsamples = 1\nvalue = [0, 1]"] ;
795 -> 796 ;
797 [label="gini = 0.0\nsamples = 2\nvalue = [2, 0]"] ;
795 -> 797 ;
798 [label="TotalCharges <= 3301.0\ngini = 0.231\nsamples = 45\nvalue = [6, 39]"] ;
794 -> 798 ;
799 [label="TotalCharges <= 2221.5\ngini = 0.176\nsamples = 41\nvalue = [4, 37]"] ;
798 -> 799 ;
800 [label="MonthlyCharges <= 77.2\ngini = 0.08\nsamples = 24\nvalue = [1, 23]"] ;
799 -> 800 ;
801 [label="gini = 0.0\nsamples = 15\nvalue = [0, 15]"] ;
800 -> 801 ;
802 [label="MonthlyCharges <= 77.95\ngini = 0.198\nsamples = 9\nvalue = [1, 8]"] ;
800 -> 802 ;
803 [label="gini = 0.0\nsamples = 1\nvalue = [1, 0]"] ;
802 -> 803 ;
804 [label="gini = 0.0\nsamples = 8\nvalue = [0, 8]"] ;
802 -> 804 ;
805 [label="TotalCharges <= 2626.5\ngini = 0.291\nsamples = 17\nvalue = [3, 14]"] ;
799 -> 805 ;
806 [label="TotalCharges <= 2586.0\ngini = 0.49\nsamples = 7\nvalue = [3, 4]"] ;
805 -> 806 ;
807 [label="TotalCharges <= 2276.0\ngini = 0.32\nsamples = 5\nvalue = [1, 4]"] ;
806 -> 807 ;
808 [label="gini = 0.0\nsamples = 1\nvalue = [1, 0]"] ;
807 -> 808 ;
809 [label="gini = 0.0\nsamples = 4\nvalue = [0, 4]"] ;
807 -> 809 ;
810 [label="gini = 0.0\nsamples = 2\nvalue = [2, 0]"] ;
806 -> 810 ;
811 [label="gini = 0.0\nsamples = 10\nvalue = [0, 10]"] ;
805 -> 811 ;
812 [label="TotalCharges <= 3459.0\ngini = 0.5\nsamples = 4\nvalue = [2, 2]"] ;
798 -> 812 ;
813 [label="gini = 0.0\nsamples = 2\nvalue = [2, 0]"] ;
812 -> 813 ;
814 [label="gini = 0.0\nsamples = 2\nvalue = [0, 2]"] ;
812 -> 814 ;
815 [label="TotalCharges <= 1915.0\ngini = 0.499\nsamples = 38\nvalue = [18, 20]"] ;
793 -> 815 ;
816 [label="MonthlyCharges <= 81.225\ngini = 0.408\nsamples = 14\nvalue = [4, 10]"] ;
815 -> 816 ;
817 [label="TotalCharges <= 736.5\ngini = 0.298\nsamples = 11\nvalue = [2, 9]"] ;
816 -> 817 ;
818 [label="gini = 0.0\nsamples = 1\nvalue = [1, 0]"] ;
817 -> 818 ;
819 [label="MonthlyCharges <= 80.025\ngini = 0.18\nsamples = 10\nvalue = [1, 9]"] ;
817 -> 819 ;
820 [label="gini = 0.0\nsamples = 1\nvalue = [1, 0]"] ;
819 -> 820 ;
821 [label="gini = 0.0\nsamples = 9\nvalue = [0, 9]"] ;
819 -> 821 ;
822 [label="TotalCharges <= 1242.5\ngini = 0.444\nsamples = 3\nvalue = [2, 1]"] ;
816 -> 822 ;
823 [label="gini = 0.0\nsamples = 1\nvalue = [1, 0]"] ;
822 -> 823 ;
824 [label="MonthlyCharges <= 82.15\ngini = 0.5\nsamples = 2\nvalue = [1, 1]"] ;
822 -> 824 ;
825 [label="gini = 0.0\nsamples = 1\nvalue = [0, 1]"] ;
824 -> 825 ;
826 [label="gini = 0.0\nsamples = 1\nvalue = [1, 0]"] ;
824 -> 826 ;
827 [label="MonthlyCharges <= 80.75\ngini = 0.486\nsamples = 24\nvalue = [14, 10]"] ;
815 -> 827 ;
828 [label="TotalCharges <= 3290.5\ngini = 0.337\nsamples = 14\nvalue = [11, 3]"] ;
827 -> 828 ;
829 [label="MonthlyCharges <= 80.325\ngini = 0.165\nsamples = 11\nvalue = [10, 1]"] ;
828 -> 829 ;
830 [label="gini = 0.0\nsamples = 6\nvalue = [6, 0]"] ;
829 -> 830 ;
831 [label="MonthlyCharges <= 80.425\ngini = 0.32\nsamples = 5\nvalue = [4, 1]"] ;
829 -> 831 ;
832 [label="tenure <= 3.5\ngini = 0.5\nsamples = 2\nvalue = [1, 1]"] ;
831 -> 832 ;
833 [label="gini = 0.0\nsamples = 1\nvalue = [1, 0]"] ;
832 -> 833 ;
834 [label="gini = 0.0\nsamples = 1\nvalue = [0, 1]"] ;
832 -> 834 ;
835 [label="gini = 0.0\nsamples = 3\nvalue = [3, 0]"] ;
831 -> 835 ;
836 [label="MonthlyCharges <= 80.125\ngini = 0.444\nsamples = 3\nvalue = [1, 2]"] ;
828 -> 836 ;
837 [label="gini = 0.0\nsamples = 1\nvalue = [1, 0]"] ;
836 -> 837 ;
838 [label="gini = 0.0\nsamples = 2\nvalue = [0, 2]"] ;
836 -> 838 ;
839 [label="MonthlyCharges <= 82.025\ngini = 0.42\nsamples = 10\nvalue = [3, 7]"] ;
827 -> 839 ;
840 [label="MonthlyCharges <= 80.925\ngini = 0.245\nsamples = 7\nvalue = [1, 6]"] ;
839 -> 840 ;
841 [label="TotalCharges <= 2981.0\ngini = 0.444\nsamples = 3\nvalue = [1, 2]"] ;
840 -> 841 ;
842 [label="gini = 0.0\nsamples = 2\nvalue = [0, 2]"] ;
841 -> 842 ;
843 [label="gini = 0.0\nsamples = 1\nvalue = [1, 0]"] ;
841 -> 843 ;
844 [label="gini = 0.0\nsamples = 4\nvalue = [0, 4]"] ;
840 -> 844 ;
845 [label="TotalCharges <= 3676.5\ngini = 0.444\nsamples = 3\nvalue = [2, 1]"] ;
839 -> 845 ;
846 [label="gini = 0.0\nsamples = 2\nvalue = [2, 0]"] ;
845 -> 846 ;
847 [label="gini = 0.0\nsamples = 1\nvalue = [0, 1]"] ;
845 -> 847 ;
848 [label="MonthlyCharges <= 69.925\ngini = 0.493\nsamples = 209\nvalue = [117.0, 92.0]"] ;
720 -> 848 ;
849 [label="MonthlyCharges <= 69.025\ngini = 0.287\nsamples = 23\nvalue = [19, 4]"] ;
848 -> 849 ;
850 [label="gini = 0.0\nsamples = 1\nvalue = [0, 1]"] ;
849 -> 850 ;
851 [label="tenure <= 8.5\ngini = 0.236\nsamples = 22\nvalue = [19, 3]"] ;
849 -> 851 ;
852 [label="TotalCharges <= 3936.0\ngini = 0.375\nsamples = 12\nvalue = [9, 3]"] ;
851 -> 852 ;
853 [label="tenure <= 6.5\ngini = 0.5\nsamples = 4\nvalue = [2, 2]"] ;
852 -> 853 ;
854 [label="TotalCharges <= 3404.5\ngini = 0.444\nsamples = 3\nvalue = [2, 1]"] ;
853 -> 854 ;
855 [label="gini = 0.0\nsamples = 1\nvalue = [1, 0]"] ;
854 -> 855 ;
856 [label="MonthlyCharges <= 69.175\ngini = 0.5\nsamples = 2\nvalue = [1, 1]"] ;
854 -> 856 ;
857 [label="gini = 0.0\nsamples = 1\nvalue = [1, 0]"] ;
856 -> 857 ;
858 [label="gini = 0.0\nsamples = 1\nvalue = [0, 1]"] ;
856 -> 858 ;
859 [label="gini = 0.0\nsamples = 1\nvalue = [0, 1]"] ;
853 -> 859 ;
860 [label="tenure <= 7.5\ngini = 0.219\nsamples = 8\nvalue = [7, 1]"] ;
852 -> 860 ;
861 [label="gini = 0.0\nsamples = 6\nvalue = [6, 0]"] ;
860 -> 861 ;
862 [label="TotalCharges <= 4680.0\ngini = 0.5\nsamples = 2\nvalue = [1, 1]"] ;
860 -> 862 ;
863 [label="gini = 0.0\nsamples = 1\nvalue = [0, 1]"] ;
862 -> 863 ;
864 [label="gini = 0.0\nsamples = 1\nvalue = [1, 0]"] ;
862 -> 864 ;
865 [label="gini = 0.0\nsamples = 10\nvalue = [10, 0]"] ;
851 -> 865 ;
866 [label="MonthlyCharges <= 75.025\ngini = 0.499\nsamples = 186\nvalue = [98, 88]"] ;
848 -> 866 ;
867 [label="MonthlyCharges <= 74.125\ngini = 0.486\nsamples = 77\nvalue = [32, 45]"] ;
866 -> 867 ;
868 [label="TotalCharges <= 6368.0\ngini = 0.499\nsamples = 42\nvalue = [22, 20]"] ;
867 -> 868 ;
869 [label="tenure <= 6.5\ngini = 0.497\nsamples = 37\nvalue = [17, 20]"] ;
868 -> 869 ;
870 [label="gini = 0.0\nsamples = 3\nvalue = [3, 0]"] ;
869 -> 870 ;
871 [label="tenure <= 7.5\ngini = 0.484\nsamples = 34\nvalue = [14, 20]"] ;
869 -> 871 ;
872 [label="TotalCharges <= 4175.5\ngini = 0.278\nsamples = 6\nvalue = [1, 5]"] ;
871 -> 872 ;
873 [label="TotalCharges <= 3973.0\ngini = 0.444\nsamples = 3\nvalue = [1, 2]"] ;
872 -> 873 ;
874 [label="gini = 0.0\nsamples = 2\nvalue = [0, 2]"] ;
873 -> 874 ;
875 [label="gini = 0.0\nsamples = 1\nvalue = [1, 0]"] ;
873 -> 875 ;
876 [label="gini = 0.0\nsamples = 3\nvalue = [0, 3]"] ;
872 -> 876 ;
877 [label="tenure <= 9.5\ngini = 0.497\nsamples = 28\nvalue = [13, 15]"] ;
871 -> 877 ;
878 [label="MonthlyCharges <= 73.2\ngini = 0.408\nsamples = 7\nvalue = [5, 2]"] ;
877 -> 878 ;
879 [label="MonthlyCharges <= 70.925\ngini = 0.5\nsamples = 4\nvalue = [2, 2]"] ;
878 -> 879 ;
880 [label="gini = 0.0\nsamples = 2\nvalue = [2, 0]"] ;
879 -> 880 ;
881 [label="gini = 0.0\nsamples = 2\nvalue = [0, 2]"] ;
879 -> 881 ;
882 [label="gini = 0.0\nsamples = 3\nvalue = [3, 0]"] ;
878 -> 882 ;
883 [label="MonthlyCharges <= 73.4\ngini = 0.472\nsamples = 21\nvalue = [8, 13]"] ;
877 -> 883 ;
884 [label="MonthlyCharges <= 72.875\ngini = 0.498\nsamples = 17\nvalue = [8, 9]"] ;
883 -> 884 ;
885 [label="MonthlyCharges <= 70.65\ngini = 0.459\nsamples = 14\nvalue = [5, 9]"] ;
884 -> 885 ;
886 [label="TotalCharges <= 6323.5\ngini = 0.494\nsamples = 9\nvalue = [5, 4]"] ;
885 -> 886 ;
887 [label="tenure <= 10.5\ngini = 0.469\nsamples = 8\nvalue = [5, 3]"] ;
886 -> 887 ;
888 [label="MonthlyCharges <= 70.125\ngini = 0.48\nsamples = 5\nvalue = [2, 3]"] ;
887 -> 888 ;
889 [label="gini = 0.0\nsamples = 2\nvalue = [0, 2]"] ;
888 -> 889 ;
890 [label="TotalCharges <= 5699.0\ngini = 0.444\nsamples = 3\nvalue = [2, 1]"] ;
888 -> 890 ;
891 [label="gini = 0.0\nsamples = 2\nvalue = [2, 0]"] ;
890 -> 891 ;
892 [label="gini = 0.0\nsamples = 1\nvalue = [0, 1]"] ;
890 -> 892 ;
893 [label="gini = 0.0\nsamples = 3\nvalue = [3, 0]"] ;
887 -> 893 ;
894 [label="gini = 0.0\nsamples = 1\nvalue = [0, 1]"] ;
886 -> 894 ;
895 [label="gini = 0.0\nsamples = 5\nvalue = [0, 5]"] ;
885 -> 895 ;
896 [label="gini = 0.0\nsamples = 3\nvalue = [3, 0]"] ;
884 -> 896 ;
897 [label="gini = 0.0\nsamples = 4\nvalue = [0, 4]"] ;
883 -> 897 ;
898 [label="gini = 0.0\nsamples = 5\nvalue = [5, 0]"] ;
868 -> 898 ;
899 [label="tenure <= 15.5\ngini = 0.408\nsamples = 35\nvalue = [10, 25]"] ;
867 -> 899 ;
900 [label="MonthlyCharges <= 74.7\ngini = 0.35\nsamples = 31\nvalue = [7, 24]"] ;
899 -> 900 ;
901 [label="tenure <= 7.5\ngini = 0.117\nsamples = 16\nvalue = [1, 15]"] ;
900 -> 901 ;
902 [label="MonthlyCharges <= 74.375\ngini = 0.375\nsamples = 4\nvalue = [1, 3]"] ;
901 -> 902 ;
903 [label="gini = 0.0\nsamples = 1\nvalue = [1, 0]"] ;
902 -> 903 ;
904 [label="gini = 0.0\nsamples = 3\nvalue = [0, 3]"] ;
902 -> 904 ;
905 [label="gini = 0.0\nsamples = 12\nvalue = [0, 12]"] ;
901 -> 905 ;
906 [label="MonthlyCharges <= 74.875\ngini = 0.48\nsamples = 15\nvalue = [6, 9]"] ;
900 -> 906 ;
907 [label="MonthlyCharges <= 74.8\ngini = 0.444\nsamples = 6\nvalue = [4, 2]"] ;
906 -> 907 ;
908 [label="tenure <= 11.0\ngini = 0.444\nsamples = 3\nvalue = [1, 2]"] ;
907 -> 908 ;
909 [label="gini = 0.0\nsamples = 2\nvalue = [0, 2]"] ;
908 -> 909 ;
910 [label="gini = 0.0\nsamples = 1\nvalue = [1, 0]"] ;
908 -> 910 ;
911 [label="gini = 0.0\nsamples = 3\nvalue = [3, 0]"] ;
907 -> 911 ;
912 [label="tenure <= 9.5\ngini = 0.346\nsamples = 9\nvalue = [2, 7]"] ;
906 -> 912 ;
913 [label="TotalCharges <= 5179.5\ngini = 0.48\nsamples = 5\nvalue = [2, 3]"] ;
912 -> 913 ;
914 [label="TotalCharges <= 4323.5\ngini = 0.375\nsamples = 4\nvalue = [1, 3]"] ;
913 -> 914 ;
915 [label="TotalCharges <= 4060.0\ngini = 0.5\nsamples = 2\nvalue = [1, 1]"] ;
914 -> 915 ;
916 [label="gini = 0.0\nsamples = 1\nvalue = [0, 1]"] ;
915 -> 916 ;
917 [label="gini = 0.0\nsamples = 1\nvalue = [1, 0]"] ;
915 -> 917 ;
918 [label="gini = 0.0\nsamples = 2\nvalue = [0, 2]"] ;
914 -> 918 ;
919 [label="gini = 0.0\nsamples = 1\nvalue = [1, 0]"] ;
913 -> 919 ;
920 [label="gini = 0.0\nsamples = 4\nvalue = [0, 4]"] ;
912 -> 920 ;
921 [label="MonthlyCharges <= 74.375\ngini = 0.375\nsamples = 4\nvalue = [3, 1]"] ;
899 -> 921 ;
922 [label="gini = 0.0\nsamples = 1\nvalue = [0, 1]"] ;
921 -> 922 ;
923 [label="gini = 0.0\nsamples = 3\nvalue = [3, 0]"] ;
921 -> 923 ;
924 [label="MonthlyCharges <= 79.225\ngini = 0.478\nsamples = 109\nvalue = [66, 43]"] ;
866 -> 924 ;
925 [label="TotalCharges <= 6326.5\ngini = 0.315\nsamples = 46\nvalue = [37, 9]"] ;
924 -> 925 ;
926 [label="tenure <= 6.5\ngini = 0.255\nsamples = 40\nvalue = [34, 6]"] ;
925 -> 926 ;
927 [label="MonthlyCharges <= 77.225\ngini = 0.5\nsamples = 2\nvalue = [1, 1]"] ;
926 -> 927 ;
928 [label="gini = 0.0\nsamples = 1\nvalue = [0, 1]"] ;
927 -> 928 ;
929 [label="gini = 0.0\nsamples = 1\nvalue = [1, 0]"] ;
927 -> 929 ;
930 [label="MonthlyCharges <= 78.9\ngini = 0.229\nsamples = 38\nvalue = [33, 5]"] ;
926 -> 930 ;
931 [label="tenure <= 11.5\ngini = 0.198\nsamples = 36\nvalue = [32, 4]"] ;
930 -> 931 ;
932 [label="TotalCharges <= 4286.0\ngini = 0.26\nsamples = 26\nvalue = [22, 4]"] ;
931 -> 932 ;
933 [label="gini = 0.0\nsamples = 1\nvalue = [0, 1]"] ;
932 -> 933 ;
934 [label="MonthlyCharges <= 75.725\ngini = 0.211\nsamples = 25\nvalue = [22, 3]"] ;
932 -> 934 ;
935 [label="gini = 0.0\nsamples = 13\nvalue = [13, 0]"] ;
934 -> 935 ;
936 [label="MonthlyCharges <= 77.875\ngini = 0.375\nsamples = 12\nvalue = [9, 3]"] ;
934 -> 936 ;
937 [label="MonthlyCharges <= 76.325\ngini = 0.49\nsamples = 7\nvalue = [4, 3]"] ;
936 -> 937 ;
938 [label="MonthlyCharges <= 75.8\ngini = 0.32\nsamples = 5\nvalue = [4, 1]"] ;
937 -> 938 ;
939 [label="tenure <= 9.5\ngini = 0.5\nsamples = 2\nvalue = [1, 1]"] ;
938 -> 939 ;
940 [label="gini = 0.0\nsamples = 1\nvalue = [0, 1]"] ;
939 -> 940 ;
941 [label="gini = 0.0\nsamples = 1\nvalue = [1, 0]"] ;
939 -> 941 ;
942 [label="gini = 0.0\nsamples = 3\nvalue = [3, 0]"] ;
938 -> 942 ;
943 [label="gini = 0.0\nsamples = 2\nvalue = [0, 2]"] ;
937 -> 943 ;
944 [label="gini = 0.0\nsamples = 5\nvalue = [5, 0]"] ;
936 -> 944 ;
945 [label="gini = 0.0\nsamples = 10\nvalue = [10, 0]"] ;
931 -> 945 ;
946 [label="TotalCharges <= 3160.0\ngini = 0.5\nsamples = 2\nvalue = [1, 1]"] ;
930 -> 946 ;
947 [label="gini = 0.0\nsamples = 1\nvalue = [0, 1]"] ;
946 -> 947 ;
948 [label="gini = 0.0\nsamples = 1\nvalue = [1, 0]"] ;
946 -> 948 ;
949 [label="MonthlyCharges <= 78.525\ngini = 0.5\nsamples = 6\nvalue = [3, 3]"] ;
925 -> 949 ;
950 [label="tenure <= 12.5\ngini = 0.375\nsamples = 4\nvalue = [1, 3]"] ;
949 -> 950 ;
951 [label="gini = 0.0\nsamples = 2\nvalue = [0, 2]"] ;
950 -> 951 ;
952 [label="MonthlyCharges <= 75.75\ngini = 0.5\nsamples = 2\nvalue = [1, 1]"] ;
950 -> 952 ;
953 [label="gini = 0.0\nsamples = 1\nvalue = [0, 1]"] ;
952 -> 953 ;
954 [label="gini = 0.0\nsamples = 1\nvalue = [1, 0]"] ;
952 -> 954 ;
955 [label="gini = 0.0\nsamples = 2\nvalue = [2, 0]"] ;
949 -> 955 ;
956 [label="tenure <= 10.5\ngini = 0.497\nsamples = 63\nvalue = [29, 34]"] ;
924 -> 956 ;
957 [label="MonthlyCharges <= 79.875\ngini = 0.43\nsamples = 32\nvalue = [10, 22]"] ;
956 -> 957 ;
958 [label="MonthlyCharges <= 79.45\ngini = 0.5\nsamples = 10\nvalue = [5, 5]"] ;
957 -> 958 ;
959 [label="gini = 0.0\nsamples = 3\nvalue = [0, 3]"] ;
958 -> 959 ;
960 [label="TotalCharges <= 5749.0\ngini = 0.408\nsamples = 7\nvalue = [5, 2]"] ;
958 -> 960 ;
961 [label="TotalCharges <= 4511.0\ngini = 0.5\nsamples = 4\nvalue = [2, 2]"] ;
960 -> 961 ;
962 [label="gini = 0.0\nsamples = 1\nvalue = [1, 0]"] ;
961 -> 962 ;
963 [label="TotalCharges <= 5216.0\ngini = 0.444\nsamples = 3\nvalue = [1, 2]"] ;
961 -> 963 ;
964 [label="gini = 0.0\nsamples = 1\nvalue = [0, 1]"] ;
963 -> 964 ;
965 [label="TotalCharges <= 5625.5\ngini = 0.5\nsamples = 2\nvalue = [1, 1]"] ;
963 -> 965 ;
966 [label="gini = 0.0\nsamples = 1\nvalue = [1, 0]"] ;
965 -> 966 ;
967 [label="gini = 0.0\nsamples = 1\nvalue = [0, 1]"] ;
965 -> 967 ;
968 [label="gini = 0.0\nsamples = 3\nvalue = [3, 0]"] ;
960 -> 968 ;
969 [label="MonthlyCharges <= 81.125\ngini = 0.351\nsamples = 22\nvalue = [5, 17]"] ;
957 -> 969 ;
970 [label="TotalCharges <= 5297.5\ngini = 0.278\nsamples = 18\nvalue = [3, 15]"] ;
969 -> 970 ;
971 [label="MonthlyCharges <= 80.275\ngini = 0.444\nsamples = 9\nvalue = [3, 6]"] ;
970 -> 971 ;
972 [label="gini = 0.0\nsamples = 2\nvalue = [2, 0]"] ;
971 -> 972 ;
973 [label="tenure <= 8.5\ngini = 0.245\nsamples = 7\nvalue = [1, 6]"] ;
971 -> 973 ;
974 [label="gini = 0.0\nsamples = 6\nvalue = [0, 6]"] ;
973 -> 974 ;
975 [label="gini = 0.0\nsamples = 1\nvalue = [1, 0]"] ;
973 -> 975 ;
976 [label="gini = 0.0\nsamples = 9\nvalue = [0, 9]"] ;
970 -> 976 ;
977 [label="TotalCharges <= 4347.5\ngini = 0.5\nsamples = 4\nvalue = [2, 2]"] ;
969 -> 977 ;
978 [label="gini = 0.0\nsamples = 1\nvalue = [0, 1]"] ;
977 -> 978 ;
979 [label="MonthlyCharges <= 81.2\ngini = 0.444\nsamples = 3\nvalue = [2, 1]"] ;
977 -> 979 ;
980 [label="gini = 0.0\nsamples = 1\nvalue = [1, 0]"] ;
979 -> 980 ;
981 [label="tenure <= 7.5\ngini = 0.5\nsamples = 2\nvalue = [1, 1]"] ;
979 -> 981 ;
982 [label="gini = 0.0\nsamples = 1\nvalue = [1, 0]"] ;
981 -> 982 ;
983 [label="gini = 0.0\nsamples = 1\nvalue = [0, 1]"] ;
981 -> 983 ;
984 [label="MonthlyCharges <= 79.45\ngini = 0.475\nsamples = 31\nvalue = [19, 12]"] ;
956 -> 984 ;
985 [label="gini = 0.0\nsamples = 1\nvalue = [0, 1]"] ;
984 -> 985 ;
986 [label="TotalCharges <= 6126.5\ngini = 0.464\nsamples = 30\nvalue = [19, 11]"] ;
984 -> 986 ;
987 [label="tenure <= 12.5\ngini = 0.423\nsamples = 23\nvalue = [16, 7]"] ;
986 -> 987 ;
988 [label="gini = 0.0\nsamples = 3\nvalue = [3, 0]"] ;
987 -> 988 ;
989 [label="TotalCharges <= 22.5\ngini = 0.455\nsamples = 20\nvalue = [13, 7]"] ;
987 -> 989 ;
990 [label="gini = 0.0\nsamples = 1\nvalue = [0, 1]"] ;
989 -> 990 ;
991 [label="TotalCharges <= 127.0\ngini = 0.432\nsamples = 19\nvalue = [13, 6]"] ;
989 -> 991 ;
992 [label="gini = 0.0\nsamples = 3\nvalue = [3, 0]"] ;
991 -> 992 ;
993 [label="TotalCharges <= 217.5\ngini = 0.469\nsamples = 16\nvalue = [10, 6]"] ;
991 -> 993 ;
994 [label="gini = 0.0\nsamples = 2\nvalue = [0, 2]"] ;
993 -> 994 ;
995 [label="tenure <= 13.5\ngini = 0.408\nsamples = 14\nvalue = [10, 4]"] ;
993 -> 995 ;
996 [label="gini = 0.0\nsamples = 1\nvalue = [0, 1]"] ;
995 -> 996 ;
997 [label="TotalCharges <= 371.5\ngini = 0.355\nsamples = 13\nvalue = [10, 3]"] ;
995 -> 997 ;
998 [label="gini = 0.0\nsamples = 6\nvalue = [6, 0]"] ;
997 -> 998 ;
999 [label="MonthlyCharges <= 80.875\ngini = 0.49\nsamples = 7\nvalue = [4, 3]"] ;
997 -> 999 ;
1000 [label="TotalCharges <= 425.0\ngini = 0.32\nsamples = 5\nvalue = [4, 1]"] ;
999 -> 1000 ;
1001 [label="gini = 0.0\nsamples = 1\nvalue = [0, 1]"] ;
1000 -> 1001 ;
1002 [label="gini = 0.0\nsamples = 4\nvalue = [4, 0]"] ;
1000 -> 1002 ;
1003 [label="gini = 0.0\nsamples = 2\nvalue = [0, 2]"] ;
999 -> 1003 ;
1004 [label="MonthlyCharges <= 81.15\ngini = 0.49\nsamples = 7\nvalue = [3, 4]"] ;
986 -> 1004 ;
1005 [label="TotalCharges <= 6455.0\ngini = 0.32\nsamples = 5\nvalue = [1, 4]"] ;
1004 -> 1005 ;
1006 [label="gini = 0.0\nsamples = 4\nvalue = [0, 4]"] ;
1005 -> 1006 ;
1007 [label="gini = 0.0\nsamples = 1\nvalue = [1, 0]"] ;
1005 -> 1007 ;
1008 [label="gini = 0.0\nsamples = 2\nvalue = [2, 0]"] ;
1004 -> 1008 ;
1009 [label="tenure <= 14.5\ngini = 0.432\nsamples = 352\nvalue = [111.0, 241.0]"] ;
719 -> 1009 ;
1010 [label="TotalCharges <= 51.5\ngini = 0.407\nsamples = 309\nvalue = [88.0, 221.0]"] ;
1009 -> 1010 ;
1011 [label="gini = 0.0\nsamples = 3\nvalue = [3, 0]"] ;
1010 -> 1011 ;
1012 [label="TotalCharges <= 293.5\ngini = 0.401\nsamples = 306\nvalue = [85, 221]"] ;
1010 -> 1012 ;
1013 [label="TotalCharges <= 138.5\ngini = 0.114\nsamples = 33\nvalue = [2, 31]"] ;
1012 -> 1013 ;
1014 [label="TotalCharges <= 124.5\ngini = 0.231\nsamples = 15\nvalue = [2, 13]"] ;
1013 -> 1014 ;
1015 [label="MonthlyCharges <= 89.425\ngini = 0.133\nsamples = 14\nvalue = [1, 13]"] ;
1014 -> 1015 ;
1016 [label="MonthlyCharges <= 86.8\ngini = 0.375\nsamples = 4\nvalue = [1, 3]"] ;
1015 -> 1016 ;
1017 [label="gini = 0.0\nsamples = 3\nvalue = [0, 3]"] ;
1016 -> 1017 ;
1018 [label="gini = 0.0\nsamples = 1\nvalue = [1, 0]"] ;
1016 -> 1018 ;
1019 [label="gini = 0.0\nsamples = 10\nvalue = [0, 10]"] ;
1015 -> 1019 ;
1020 [label="gini = 0.0\nsamples = 1\nvalue = [1, 0]"] ;
1014 -> 1020 ;
1021 [label="gini = 0.0\nsamples = 18\nvalue = [0, 18]"] ;
1013 -> 1021 ;
1022 [label="tenure <= 8.5\ngini = 0.423\nsamples = 273\nvalue = [83, 190]"] ;
1012 -> 1022 ;
1023 [label="MonthlyCharges <= 106.925\ngini = 0.379\nsamples = 177\nvalue = [45, 132]"] ;
1022 -> 1023 ;
1024 [label="MonthlyCharges <= 94.925\ngini = 0.371\nsamples = 175\nvalue = [43, 132]"] ;
1023 -> 1024 ;
1025 [label="MonthlyCharges <= 94.725\ngini = 0.416\nsamples = 122\nvalue = [36, 86]"] ;
1024 -> 1025 ;
1026 [label="MonthlyCharges <= 94.125\ngini = 0.397\nsamples = 117\nvalue = [32, 85]"] ;
1025 -> 1026 ;
1027 [label="MonthlyCharges <= 89.675\ngini = 0.422\nsamples = 106\nvalue = [32, 74]"] ;
1026 -> 1027 ;
1028 [label="TotalCharges <= 811.0\ngini = 0.354\nsamples = 74\nvalue = [17, 57]"] ;
1027 -> 1028 ;
1029 [label="gini = 0.0\nsamples = 1\nvalue = [1, 0]"] ;
1028 -> 1029 ;
1030 [label="TotalCharges <= 3468.5\ngini = 0.342\nsamples = 73\nvalue = [16, 57]"] ;
1028 -> 1030 ;
1031 [label="MonthlyCharges <= 86.125\ngini = 0.185\nsamples = 29\nvalue = [3, 26]"] ;
1030 -> 1031 ;
1032 [label="MonthlyCharges <= 86.025\ngini = 0.305\nsamples = 16\nvalue = [3, 13]"] ;
1031 -> 1032 ;
1033 [label="TotalCharges <= 2252.0\ngini = 0.231\nsamples = 15\nvalue = [2, 13]"] ;
1032 -> 1033 ;
1034 [label="tenure <= 2.5\ngini = 0.5\nsamples = 4\nvalue = [2, 2]"] ;
1033 -> 1034 ;
1035 [label="gini = 0.0\nsamples = 2\nvalue = [0, 2]"] ;
1034 -> 1035 ;
1036 [label="gini = 0.0\nsamples = 2\nvalue = [2, 0]"] ;
1034 -> 1036 ;
1037 [label="gini = 0.0\nsamples = 11\nvalue = [0, 11]"] ;
1033 -> 1037 ;
1038 [label="gini = 0.0\nsamples = 1\nvalue = [1, 0]"] ;
1032 -> 1038 ;
1039 [label="gini = 0.0\nsamples = 13\nvalue = [0, 13]"] ;
1031 -> 1039 ;
1040 [label="TotalCharges <= 3604.0\ngini = 0.416\nsamples = 44\nvalue = [13, 31]"] ;
1030 -> 1040 ;
1041 [label="gini = 0.0\nsamples = 2\nvalue = [2, 0]"] ;
1040 -> 1041 ;
1042 [label="MonthlyCharges <= 87.075\ngini = 0.387\nsamples = 42\nvalue = [11, 31]"] ;
1040 -> 1042 ;
1043 [label="TotalCharges <= 3738.0\ngini = 0.278\nsamples = 30\nvalue = [5, 25]"] ;
1042 -> 1043 ;
1044 [label="TotalCharges <= 3617.5\ngini = 0.5\nsamples = 2\nvalue = [1, 1]"] ;
1043 -> 1044 ;
1045 [label="gini = 0.0\nsamples = 1\nvalue = [0, 1]"] ;
1044 -> 1045 ;
1046 [label="gini = 0.0\nsamples = 1\nvalue = [1, 0]"] ;
1044 -> 1046 ;
1047 [label="TotalCharges <= 4292.5\ngini = 0.245\nsamples = 28\nvalue = [4, 24]"] ;
1043 -> 1047 ;
1048 [label="gini = 0.0\nsamples = 8\nvalue = [0, 8]"] ;
1047 -> 1048 ;
1049 [label="TotalCharges <= 4336.5\ngini = 0.32\nsamples = 20\nvalue = [4, 16]"] ;
1047 -> 1049 ;
1050 [label="gini = 0.0\nsamples = 1\nvalue = [1, 0]"] ;
1049 -> 1050 ;
1051 [label="TotalCharges <= 4952.0\ngini = 0.266\nsamples = 19\nvalue = [3, 16]"] ;
1049 -> 1051 ;
1052 [label="gini = 0.0\nsamples = 6\nvalue = [0, 6]"] ;
1051 -> 1052 ;
1053 [label="TotalCharges <= 4989.0\ngini = 0.355\nsamples = 13\nvalue = [3, 10]"] ;
1051 -> 1053 ;
1054 [label="gini = 0.0\nsamples = 1\nvalue = [1, 0]"] ;
1053 -> 1054 ;
1055 [label="MonthlyCharges <= 85.075\ngini = 0.278\nsamples = 12\nvalue = [2, 10]"] ;
1053 -> 1055 ;
1056 [label="gini = 0.0\nsamples = 6\nvalue = [0, 6]"] ;
1055 -> 1056 ;
1057 [label="MonthlyCharges <= 86.1\ngini = 0.444\nsamples = 6\nvalue = [2, 4]"] ;
1055 -> 1057 ;
1058 [label="TotalCharges <= 5166.5\ngini = 0.444\nsamples = 3\nvalue = [2, 1]"] ;
1057 -> 1058 ;
1059 [label="gini = 0.0\nsamples = 1\nvalue = [0, 1]"] ;
1058 -> 1059 ;
1060 [label="gini = 0.0\nsamples = 2\nvalue = [2, 0]"] ;
1058 -> 1060 ;
1061 [label="gini = 0.0\nsamples = 3\nvalue = [0, 3]"] ;
1057 -> 1061 ;
1062 [label="MonthlyCharges <= 89.275\ngini = 0.5\nsamples = 12\nvalue = [6, 6]"] ;
1042 -> 1062 ;
1063 [label="tenure <= 5.5\ngini = 0.278\nsamples = 6\nvalue = [5, 1]"] ;
1062 -> 1063 ;
1064 [label="gini = 0.0\nsamples = 1\nvalue = [0, 1]"] ;
1063 -> 1064 ;
1065 [label="gini = 0.0\nsamples = 5\nvalue = [5, 0]"] ;
1063 -> 1065 ;
1066 [label="TotalCharges <= 4708.0\ngini = 0.278\nsamples = 6\nvalue = [1, 5]"] ;
1062 -> 1066 ;
1067 [label="tenure <= 5.5\ngini = 0.5\nsamples = 2\nvalue = [1, 1]"] ;
1066 -> 1067 ;
1068 [label="gini = 0.0\nsamples = 1\nvalue = [0, 1]"] ;
1067 -> 1068 ;
1069 [label="gini = 0.0\nsamples = 1\nvalue = [1, 0]"] ;
1067 -> 1069 ;
1070 [label="gini = 0.0\nsamples = 4\nvalue = [0, 4]"] ;
1066 -> 1070 ;
1071 [label="MonthlyCharges <= 90.775\ngini = 0.498\nsamples = 32\nvalue = [15, 17]"] ;
1027 -> 1071 ;
1072 [label="MonthlyCharges <= 90.175\ngini = 0.391\nsamples = 15\nvalue = [11, 4]"] ;
1071 -> 1072 ;
1073 [label="MonthlyCharges <= 89.925\ngini = 0.49\nsamples = 7\nvalue = [3, 4]"] ;
1072 -> 1073 ;
1074 [label="TotalCharges <= 3189.5\ngini = 0.375\nsamples = 4\nvalue = [3, 1]"] ;
1073 -> 1074 ;
1075 [label="gini = 0.0\nsamples = 2\nvalue = [2, 0]"] ;
1074 -> 1075 ;
1076 [label="MonthlyCharges <= 89.775\ngini = 0.5\nsamples = 2\nvalue = [1, 1]"] ;
1074 -> 1076 ;
1077 [label="gini = 0.0\nsamples = 1\nvalue = [1, 0]"] ;
1076 -> 1077 ;
1078 [label="gini = 0.0\nsamples = 1\nvalue = [0, 1]"] ;
1076 -> 1078 ;
1079 [label="gini = 0.0\nsamples = 3\nvalue = [0, 3]"] ;
1073 -> 1079 ;
1080 [label="gini = 0.0\nsamples = 8\nvalue = [8, 0]"] ;
1072 -> 1080 ;
1081 [label="MonthlyCharges <= 94.025\ngini = 0.36\nsamples = 17\nvalue = [4, 13]"] ;
1071 -> 1081 ;
1082 [label="TotalCharges <= 1265.5\ngini = 0.231\nsamples = 15\nvalue = [2, 13]"] ;
1081 -> 1082 ;
1083 [label="gini = 0.0\nsamples = 1\nvalue = [1, 0]"] ;
1082 -> 1083 ;
1084 [label="TotalCharges <= 2403.0\ngini = 0.133\nsamples = 14\nvalue = [1, 13]"] ;
1082 -> 1084 ;
1085 [label="TotalCharges <= 2190.0\ngini = 0.375\nsamples = 4\nvalue = [1, 3]"] ;
1084 -> 1085 ;
1086 [label="gini = 0.0\nsamples = 3\nvalue = [0, 3]"] ;
1085 -> 1086 ;
1087 [label="gini = 0.0\nsamples = 1\nvalue = [1, 0]"] ;
1085 -> 1087 ;
1088 [label="gini = 0.0\nsamples = 10\nvalue = [0, 10]"] ;
1084 -> 1088 ;
1089 [label="gini = 0.0\nsamples = 2\nvalue = [2, 0]"] ;
1081 -> 1089 ;
1090 [label="gini = 0.0\nsamples = 11\nvalue = [0, 11]"] ;
1026 -> 1090 ;
1091 [label="TotalCharges <= 3761.5\ngini = 0.32\nsamples = 5\nvalue = [4, 1]"] ;
1025 -> 1091 ;
1092 [label="gini = 0.0\nsamples = 3\nvalue = [3, 0]"] ;
1091 -> 1092 ;
1093 [label="TotalCharges <= 4870.5\ngini = 0.5\nsamples = 2\nvalue = [1, 1]"] ;
1091 -> 1093 ;
1094 [label="gini = 0.0\nsamples = 1\nvalue = [0, 1]"] ;
1093 -> 1094 ;
1095 [label="gini = 0.0\nsamples = 1\nvalue = [1, 0]"] ;
1093 -> 1095 ;
1096 [label="TotalCharges <= 6269.0\ngini = 0.229\nsamples = 53\nvalue = [7, 46]"] ;
1024 -> 1096 ;
1097 [label="TotalCharges <= 2531.0\ngini = 0.204\nsamples = 52\nvalue = [6, 46]"] ;
1096 -> 1097 ;
1098 [label="MonthlyCharges <= 96.85\ngini = 0.397\nsamples = 11\nvalue = [3, 8]"] ;
1097 -> 1098 ;
1099 [label="TotalCharges <= 2527.5\ngini = 0.219\nsamples = 8\nvalue = [1, 7]"] ;
1098 -> 1099 ;
1100 [label="gini = 0.0\nsamples = 7\nvalue = [0, 7]"] ;
1099 -> 1100 ;
1101 [label="gini = 0.0\nsamples = 1\nvalue = [1, 0]"] ;
1099 -> 1101 ;
1102 [label="TotalCharges <= 1825.5\ngini = 0.444\nsamples = 3\nvalue = [2, 1]"] ;
1098 -> 1102 ;
1103 [label="gini = 0.0\nsamples = 2\nvalue = [2, 0]"] ;
1102 -> 1103 ;
1104 [label="gini = 0.0\nsamples = 1\nvalue = [0, 1]"] ;
1102 -> 1104 ;
1105 [label="TotalCharges <= 4205.0\ngini = 0.136\nsamples = 41\nvalue = [3, 38]"] ;
1097 -> 1105 ;
1106 [label="gini = 0.0\nsamples = 16\nvalue = [0, 16]"] ;
1105 -> 1106 ;
1107 [label="TotalCharges <= 4273.5\ngini = 0.211\nsamples = 25\nvalue = [3, 22]"] ;
1105 -> 1107 ;
1108 [label="gini = 0.0\nsamples = 1\nvalue = [1, 0]"] ;
1107 -> 1108 ;
1109 [label="tenure <= 5.5\ngini = 0.153\nsamples = 24\nvalue = [2, 22]"] ;
1107 -> 1109 ;
1110 [label="MonthlyCharges <= 102.9\ngini = 0.444\nsamples = 3\nvalue = [1, 2]"] ;
1109 -> 1110 ;
1111 [label="gini = 0.0\nsamples = 2\nvalue = [0, 2]"] ;
1110 -> 1111 ;
1112 [label="gini = 0.0\nsamples = 1\nvalue = [1, 0]"] ;
1110 -> 1112 ;
1113 [label="MonthlyCharges <= 100.175\ngini = 0.091\nsamples = 21\nvalue = [1, 20]"] ;
1109 -> 1113 ;
1114 [label="gini = 0.0\nsamples = 12\nvalue = [0, 12]"] ;
1113 -> 1114 ;
1115 [label="MonthlyCharges <= 100.5\ngini = 0.198\nsamples = 9\nvalue = [1, 8]"] ;
1113 -> 1115 ;
1116 [label="gini = 0.0\nsamples = 1\nvalue = [1, 0]"] ;
1115 -> 1116 ;
1117 [label="gini = 0.0\nsamples = 8\nvalue = [0, 8]"] ;
1115 -> 1117 ;
1118 [label="gini = 0.0\nsamples = 1\nvalue = [1, 0]"] ;
1096 -> 1118 ;
1119 [label="gini = 0.0\nsamples = 2\nvalue = [2, 0]"] ;
1023 -> 1119 ;
1120 [label="MonthlyCharges <= 97.5\ngini = 0.478\nsamples = 96\nvalue = [38, 58]"] ;
1022 -> 1120 ;
1121 [label="TotalCharges <= 6458.0\ngini = 0.496\nsamples = 70\nvalue = [32, 38]"] ;
1120 -> 1121 ;
1122 [label="MonthlyCharges <= 95.55\ngini = 0.485\nsamples = 63\nvalue = [26, 37]"] ;
1121 -> 1122 ;
1123 [label="TotalCharges <= 310.0\ngini = 0.463\nsamples = 55\nvalue = [20, 35]"] ;
1122 -> 1123 ;
1124 [label="gini = 0.0\nsamples = 2\nvalue = [2, 0]"] ;
1123 -> 1124 ;
1125 [label="MonthlyCharges <= 84.7\ngini = 0.449\nsamples = 53\nvalue = [18, 35]"] ;
1123 -> 1125 ;
1126 [label="gini = 0.0\nsamples = 5\nvalue = [0, 5]"] ;
1125 -> 1126 ;
1127 [label="tenure <= 9.5\ngini = 0.469\nsamples = 48\nvalue = [18, 30]"] ;
1125 -> 1127 ;
1128 [label="TotalCharges <= 6105.5\ngini = 0.498\nsamples = 17\nvalue = [9, 8]"] ;
1127 -> 1128 ;
1129 [label="TotalCharges <= 5835.0\ngini = 0.32\nsamples = 10\nvalue = [8, 2]"] ;
1128 -> 1129 ;
1130 [label="gini = 0.0\nsamples = 1\nvalue = [0, 1]"] ;
1129 -> 1130 ;
1131 [label="MonthlyCharges <= 90.575\ngini = 0.198\nsamples = 9\nvalue = [8, 1]"] ;
1129 -> 1131 ;
1132 [label="gini = 0.0\nsamples = 7\nvalue = [7, 0]"] ;
1131 -> 1132 ;
1133 [label="TotalCharges <= 6061.0\ngini = 0.5\nsamples = 2\nvalue = [1, 1]"] ;
1131 -> 1133 ;
1134 [label="gini = 0.0\nsamples = 1\nvalue = [0, 1]"] ;
1133 -> 1134 ;
1135 [label="gini = 0.0\nsamples = 1\nvalue = [1, 0]"] ;
1133 -> 1135 ;
1136 [label="TotalCharges <= 6262.0\ngini = 0.245\nsamples = 7\nvalue = [1, 6]"] ;
1128 -> 1136 ;
1137 [label="gini = 0.0\nsamples = 4\nvalue = [0, 4]"] ;
1136 -> 1137 ;
1138 [label="MonthlyCharges <= 93.875\ngini = 0.444\nsamples = 3\nvalue = [1, 2]"] ;
1136 -> 1138 ;
1139 [label="gini = 0.0\nsamples = 1\nvalue = [1, 0]"] ;
1138 -> 1139 ;
1140 [label="gini = 0.0\nsamples = 2\nvalue = [0, 2]"] ;
1138 -> 1140 ;
1141 [label="TotalCharges <= 6234.0\ngini = 0.412\nsamples = 31\nvalue = [9, 22]"] ;
1127 -> 1141 ;
1142 [label="MonthlyCharges <= 91.9\ngini = 0.32\nsamples = 20\nvalue = [4, 16]"] ;
1141 -> 1142 ;
1143 [label="MonthlyCharges <= 86.025\ngini = 0.124\nsamples = 15\nvalue = [1, 14]"] ;
1142 -> 1143 ;
1144 [label="tenure <= 11.5\ngini = 0.375\nsamples = 4\nvalue = [1, 3]"] ;
1143 -> 1144 ;
1145 [label="gini = 0.0\nsamples = 3\nvalue = [0, 3]"] ;
1144 -> 1145 ;
1146 [label="gini = 0.0\nsamples = 1\nvalue = [1, 0]"] ;
1144 -> 1146 ;
1147 [label="gini = 0.0\nsamples = 11\nvalue = [0, 11]"] ;
1143 -> 1147 ;
1148 [label="MonthlyCharges <= 93.95\ngini = 0.48\nsamples = 5\nvalue = [3, 2]"] ;
1142 -> 1148 ;
1149 [label="gini = 0.0\nsamples = 2\nvalue = [2, 0]"] ;
1148 -> 1149 ;
1150 [label="tenure <= 12.5\ngini = 0.444\nsamples = 3\nvalue = [1, 2]"] ;
1148 -> 1150 ;
1151 [label="gini = 0.0\nsamples = 1\nvalue = [1, 0]"] ;
1150 -> 1151 ;
1152 [label="gini = 0.0\nsamples = 2\nvalue = [0, 2]"] ;
1150 -> 1152 ;
1153 [label="TotalCharges <= 6315.0\ngini = 0.496\nsamples = 11\nvalue = [5, 6]"] ;
1141 -> 1153 ;
1154 [label="TotalCharges <= 6249.0\ngini = 0.32\nsamples = 5\nvalue = [4, 1]"] ;
1153 -> 1154 ;
1155 [label="MonthlyCharges <= 87.725\ngini = 0.5\nsamples = 2\nvalue = [1, 1]"] ;
1154 -> 1155 ;
1156 [label="gini = 0.0\nsamples = 1\nvalue = [1, 0]"] ;
1155 -> 1156 ;
1157 [label="gini = 0.0\nsamples = 1\nvalue = [0, 1]"] ;
1155 -> 1157 ;
1158 [label="gini = 0.0\nsamples = 3\nvalue = [3, 0]"] ;
1154 -> 1158 ;
1159 [label="MonthlyCharges <= 90.675\ngini = 0.278\nsamples = 6\nvalue = [1, 5]"] ;
1153 -> 1159 ;
1160 [label="TotalCharges <= 6363.0\ngini = 0.5\nsamples = 2\nvalue = [1, 1]"] ;
1159 -> 1160 ;
1161 [label="gini = 0.0\nsamples = 1\nvalue = [0, 1]"] ;
1160 -> 1161 ;
1162 [label="gini = 0.0\nsamples = 1\nvalue = [1, 0]"] ;
1160 -> 1162 ;
1163 [label="gini = 0.0\nsamples = 4\nvalue = [0, 4]"] ;
1159 -> 1163 ;
1164 [label="TotalCharges <= 474.0\ngini = 0.375\nsamples = 8\nvalue = [6, 2]"] ;
1122 -> 1164 ;
1165 [label="tenure <= 11.5\ngini = 0.5\nsamples = 4\nvalue = [2, 2]"] ;
1164 -> 1165 ;
1166 [label="gini = 0.0\nsamples = 1\nvalue = [0, 1]"] ;
1165 -> 1166 ;
1167 [label="TotalCharges <= 438.5\ngini = 0.444\nsamples = 3\nvalue = [2, 1]"] ;
1165 -> 1167 ;
1168 [label="gini = 0.0\nsamples = 2\nvalue = [2, 0]"] ;
1167 -> 1168 ;
1169 [label="gini = 0.0\nsamples = 1\nvalue = [0, 1]"] ;
1167 -> 1169 ;
1170 [label="gini = 0.0\nsamples = 4\nvalue = [4, 0]"] ;
1164 -> 1170 ;
1171 [label="MonthlyCharges <= 89.675\ngini = 0.245\nsamples = 7\nvalue = [6, 1]"] ;
1121 -> 1171 ;
1172 [label="gini = 0.0\nsamples = 4\nvalue = [4, 0]"] ;
1171 -> 1172 ;
1173 [label="MonthlyCharges <= 90.625\ngini = 0.444\nsamples = 3\nvalue = [2, 1]"] ;
1171 -> 1173 ;
1174 [label="gini = 0.0\nsamples = 1\nvalue = [0, 1]"] ;
1173 -> 1174 ;
1175 [label="gini = 0.0\nsamples = 2\nvalue = [2, 0]"] ;
1173 -> 1175 ;
1176 [label="tenure <= 11.5\ngini = 0.355\nsamples = 26\nvalue = [6, 20]"] ;
1120 -> 1176 ;
1177 [label="TotalCharges <= 6364.5\ngini = 0.494\nsamples = 9\nvalue = [4, 5]"] ;
1176 -> 1177 ;
